{"learner":{"attributes":{"scikit_learn":"{\"_estimator_type\": \"classifier\"}"},"feature_names":[],"feature_types":[],"gradient_booster":{"model":{"gbtree_model_param":{"num_parallel_tree":"1","num_trees":"8000"},"iteration_indptr":[0,8,16,24,32,40,48,56,64,72,80,88,96,104,112,120,128,136,144,152,160,168,176,184,192,200,208,216,224,232,240,248,256,264,272,280,288,296,304,312,320,328,336,344,352,360,368,376,384,392,400,408,416,424,432,440,448,456,464,472,480,488,496,504,512,520,528,536,544,552,560,568,576,584,592,600,608,616,624,632,640,648,656,664,672,680,688,696,704,712,720,728,736,744,752,760,768,776,784,792,800,808,816,824,832,840,848,856,864,872,880,888,896,904,912,920,928,936,944,952,960,968,976,984,992,1000,1008,1016,1024,1032,1040,1048,1056,1064,1072,1080,1088,1096,1104,1112,1120,1128,1136,1144,1152,1160,1168,1176,1184,1192,1200,1208,1216,1224,1232,1240,1248,1256,1264,1272,1280,1288,1296,1304,1312,1320,1328,1336,1344,1352,1360,1368,1376,1384,1392,1400,1408,1416,1424,1432,1440,1448,1456,1464,1472,1480,1488,1496,1504,1512,1520,1528,1536,1544,1552,1560,1568,1576,1584,1592,1600,1608,1616,1624,1632,1640,1648,1656,1664,1672,1680,1688,1696,1704,1712,1720,1728,1736,1744,1752,1760,1768,1776,1784,1792,1800,1808,1816,1824,1832,1840,1848,1856,1864,1872,1880,1888,1896,1904,1912,1920,1928,1936,1944,1952,1960,1968,1976,1984,1992,2000,2008,2016,2024,2032,2040,2048,2056,2064,2072,2080,2088,2096,2104,2112,2120,2128,2136,2144,2152,2160,2168,2176,2184,2192,2200,2208,2216,2224,2232,2240,2248,2256,2264,2272,2280,2288,2296,2304,2312,2320,2328,2336,2344,2352,2360,2368,2376,2384,2392,2400,2408,2416,2424,2432,2440,2448,2456,2464,2472,2480,2488,2496,2504,2512,2520,2528,2536,2544,2552,2560,2568,2576,2584,2592,2600,2608,2616,2624,2632,2640,2648,2656,2664,2672,2680,2688,2696,2704,2712,2720,2728,2736,2744,2752,2760,2768,2776,2784,2792,2800,2808,2816,2824,2832,2840,2848,2856,2864,2872,2880,2888,2896,2904,2912,2920,2928,2936,2944,2952,2960,2968,2976,2984,2992,3000,3008,3016,3024,3032,3040,3048,3056,3064,3072,3080,3088,3096,3104,3112,3120,3128,3136,3144,3152,3160,3168,3176,3184,3192,3200,3208,3216,3224,3232,3240,3248,3256,3264,3272,3280,3288,3296,3304,3312,3320,3328,3336,3344,3352,3360,3368,3376,3384,3392,3400,3408,3416,3424,3432,3440,3448,3456,3464,3472,3480,3488,3496,3504,3512,3520,3528,3536,3544,3552,3560,3568,3576,3584,3592,3600,3608,3616,3624,3632,3640,3648,3656,3664,3672,3680,3688,3696,3704,3712,3720,3728,3736,3744,3752,3760,3768,3776,3784,3792,3800,3808,3816,3824,3832,3840,3848,3856,3864,3872,3880,3888,3896,3904,3912,3920,3928,3936,3944,3952,3960,3968,3976,3984,3992,4000,4008,4016,4024,4032,4040,4048,4056,4064,4072,4080,4088,4096,4104,4112,4120,4128,4136,4144,4152,4160,4168,4176,4184,4192,4200,4208,4216,4224,4232,4240,4248,4256,4264,4272,4280,4288,4296,4304,4312,4320,4328,4336,4344,4352,4360,4368,4376,4384,4392,4400,4408,4416,4424,4432,4440,4448,4456,4464,4472,4480,4488,4496,4504,4512,4520,4528,4536,4544,4552,4560,4568,4576,4584,4592,4600,4608,4616,4624,4632,4640,4648,4656,4664,4672,4680,4688,4696,4704,4712,4720,4728,4736,4744,4752,4760,4768,4776,4784,4792,4800,4808,4816,4824,4832,4840,4848,4856,4864,4872,4880,4888,4896,4904,4912,4920,4928,4936,4944,4952,4960,4968,4976,4984,4992,5000,5008,5016,5024,5032,5040,5048,5056,5064,5072,5080,5088,5096,5104,5112,5120,5128,5136,5144,5152,5160,5168,5176,5184,5192,5200,5208,5216,5224,5232,5240,5248,5256,5264,5272,5280,5288,5296,5304,5312,5320,5328,5336,5344,5352,5360,5368,5376,5384,5392,5400,5408,5416,5424,5432,5440,5448,5456,5464,5472,5480,5488,5496,5504,5512,5520,5528,5536,5544,5552,5560,5568,5576,5584,5592,5600,5608,5616,5624,5632,5640,5648,5656,5664,5672,5680,5688,5696,5704,5712,5720,5728,5736,5744,5752,5760,5768,5776,5784,5792,5800,5808,5816,5824,5832,5840,5848,5856,5864,5872,5880,5888,5896,5904,5912,5920,5928,5936,5944,5952,5960,5968,5976,5984,5992,6000,6008,6016,6024,6032,6040,6048,6056,6064,6072,6080,6088,6096,6104,6112,6120,6128,6136,6144,6152,6160,6168,6176,6184,6192,6200,6208,6216,6224,6232,6240,6248,6256,6264,6272,6280,6288,6296,6304,6312,6320,6328,6336,6344,6352,6360,6368,6376,6384,6392,6400,6408,6416,6424,6432,6440,6448,6456,6464,6472,6480,6488,6496,6504,6512,6520,6528,6536,6544,6552,6560,6568,6576,6584,6592,6600,6608,6616,6624,6632,6640,6648,6656,6664,6672,6680,6688,6696,6704,6712,6720,6728,6736,6744,6752,6760,6768,6776,6784,6792,6800,6808,6816,6824,6832,6840,6848,6856,6864,6872,6880,6888,6896,6904,6912,6920,6928,6936,6944,6952,6960,6968,6976,6984,6992,7000,7008,7016,7024,7032,7040,7048,7056,7064,7072,7080,7088,7096,7104,7112,7120,7128,7136,7144,7152,7160,7168,7176,7184,7192,7200,7208,7216,7224,7232,7240,7248,7256,7264,7272,7280,7288,7296,7304,7312,7320,7328,7336,7344,7352,7360,7368,7376,7384,7392,7400,7408,7416,7424,7432,7440,7448,7456,7464,7472,7480,7488,7496,7504,7512,7520,7528,7536,7544,7552,7560,7568,7576,7584,7592,7600,7608,7616,7624,7632,7640,7648,7656,7664,7672,7680,7688,7696,7704,7712,7720,7728,7736,7744,7752,7760,7768,7776,7784,7792,7800,7808,7816,7824,7832,7840,7848,7856,7864,7872,7880,7888,7896,7904,7912,7920,7928,7936,7944,7952,7960,7968,7976,7984,7992,8000],"tree_info":[0,1,2,3,4,5,6,7,0,1,2,3,4,5,6,7,0,1,2,3,4,5,6,7,0,1,2,3,4,5,6,7,0,1,2,3,4,5,6,7,0,1,2,3,4,5,6,7,0,1,2,3,4,5,6,7,0,1,2,3,4,5,6,7,0,1,2,3,4,5,6,7,0,1,2,3,4,5,6,7,0,1,2,3,4,5,6,7,0,1,2,3,4,5,6,7,0,1,2,3,4,5,6,7,0,1,2,3,4,5,6,7,0,1,2,3,4,5,6,7,0,1,2,3,4,5,6,7,0,1,2,3,4,5,6,7,0,1,2,3,4,5,6,7,0,1,2,3,4,5,6,7,0,1,2,3,4,5,6,7,0,1,2,3,4,5,6,7,0,1,2,3,4,5,6,7,0,1,2,3,4,5,6,7,0,1,2,3,4,5,6,7,0,1,2,3,4,5,6,7,0,1,2,3,4,5,6,7,0,1,2,3,4,5,6,7,0,1,2,3,4,5,6,7,0,1,2,3,4,5,6,7,0,1,2,3,4,5,6,7,0,1,2,3,4,5,6,7,0,1,2,3,4,5,6,7,0,1,2,3,4,5,6,7,0,1,2,3,4,5,6,7,0,1,2,3,4,5,6,7,0,1,2,3,4,5,6,7,0,1,2,3,4,5,6,7,0,1,2,3,4,5,6,7,0,1,2,3,4,5,6,7,0,1,2,3,4,5,6,7,0,1,2,3,4,5,6,7,0,1,2,3,4,5,6,7,0,1,2,3,4,5,6,7,0,1,2,3,4,5,6,7,0,1,2,3,4,5,6,7,0,1,2,3,4,5,6,7,0,1,2,3,4,5,6,7,0,1,2,3,4,5,6,7,0,1,2,3,4,5,6,7,0,1,2,3,4,5,6,7,0,1,2,3,4,5,6,7,0,1,2,3,4,5,6,7,0,1,2,3,4,5,6,7,0,1,2,3,4,5,6,7,0,1,2,3,4,5,6,7,0,1,2,3,4,5,6,7,0,1,2,3,4,5,6,7,0,1,2,3,4,5,6,7,0,1,2,3,4,5,6,7,0,1,2,3,4,5,6,7,0,1,2,3,4,5,6,7,0,1,2,3,4,5,6,7,0,1,2,3,4,5,6,7,0,1,2,3,4,5,6,7,0,1,2,3,4,5,6,7,0,1,2,3,4,5,6,7,0,1,2,3,4,5,6,7,0,1,2,3,4,5,6,7,0,1,2,3,4,5,6,7,0,1,2,3,4,5,6,7,0,1,2,3,4,5,6,7,0,1,2,3,4,5,6,7,0,1,2,3,4,5,6,7,0,1,2,3,4,5,6,7,0,1,2,3,4,5,6,7,0,1,2,3,4,5,6,7,0,1,2,3,4,5,6,7,0,1,2,3,4,5,6,7,0,1,2,3,4,5,6,7,0,1,2,3,4,5,6,7,0,1,2,3,4,5,6,7,0,1,2,3,4,5,6,7,0,1,2,3,4,5,6,7,0,1,2,3,4,5,6,7,0,1,2,3,4,5,6,7,0,1,2,3,4,5,6,7,0,1,2,3,4,5,6,7,0,1,2,3,4,5,6,7,0,1,2,3,4,5,6,7,0,1,2,3,4,5,6,7,0,1,2,3,4,5,6,7,0,1,2,3,4,5,6,7,0,1,2,3,4,5,6,7,0,1,2,3,4,5,6,7,0,1,2,3,4,5,6,7,0,1,2,3,4,5,6,7,0,1,2,3,4,5,6,7,0,1,2,3,4,5,6,7,0,1,2,3,4,5,6,7,0,1,2,3,4,5,6,7,0,1,2,3,4,5,6,7,0,1,2,3,4,5,6,7,0,1,2,3,4,5,6,7,0,1,2,3,4,5,6,7,0,1,2,3,4,5,6,7,0,1,2,3,4,5,6,7,0,1,2,3,4,5,6,7,0,1,2,3,4,5,6,7,0,1,2,3,4,5,6,7,0,1,2,3,4,5,6,7,0,1,2,3,4,5,6,7,0,1,2,3,4,5,6,7,0,1,2,3,4,5,6,7,0,1,2,3,4,5,6,7,0,1,2,3,4,5,6,7,0,1,2,3,4,5,6,7,0,1,2,3,4,5,6,7,0,1,2,3,4,5,6,7,0,1,2,3,4,5,6,7,0,1,2,3,4,5,6,7,0,1,2,3,4,5,6,7,0,1,2,3,4,5,6,7,0,1,2,3,4,5,6,7,0,1,2,3,4,5,6,7,0,1,2,3,4,5,6,7,0,1,2,3,4,5,6,7,0,1,2,3,4,5,6,7,0,1,2,3,4,5,6,7,0,1,2,3,4,5,6,7,0,1,2,3,4,5,6,7,0,1,2,3,4,5,6,7,0,1,2,3,4,5,6,7,0,1,2,3,4,5,6,7,0,1,2,3,4,5,6,7,0,1,2,3,4,5,6,7,0,1,2,3,4,5,6,7,0,1,2,3,4,5,6,7,0,1,2,3,4,5,6,7,0,1,2,3,4,5,6,7,0,1,2,3,4,5,6,7,0,1,2,3,4,5,6,7,0,1,2,3,4,5,6,7,0,1,2,3,4,5,6,7,0,1,2,3,4,5,6,7,0,1,2,3,4,5,6,7,0,1,2,3,4,5,6,7,0,1,2,3,4,5,6,7,0,1,2,3,4,5,6,7,0,1,2,3,4,5,6,7,0,1,2,3,4,5,6,7,0,1,2,3,4,5,6,7,0,1,2,3,4,5,6,7,0,1,2,3,4,5,6,7,0,1,2,3,4,5,6,7,0,1,2,3,4,5,6,7,0,1,2,3,4,5,6,7,0,1,2,3,4,5,6,7,0,1,2,3,4,5,6,7,0,1,2,3,4,5,6,7,0,1,2,3,4,5,6,7,0,1,2,3,4,5,6,7,0,1,2,3,4,5,6,7,0,1,2,3,4,5,6,7,0,1,2,3,4,5,6,7,0,1,2,3,4,5,6,7,0,1,2,3,4,5,6,7,0,1,2,3,4,5,6,7,0,1,2,3,4,5,6,7,0,1,2,3,4,5,6,7,0,1,2,3,4,5,6,7,0,1,2,3,4,5,6,7,0,1,2,3,4,5,6,7,0,1,2,3,4,5,6,7,0,1,2,3,4,5,6,7,0,1,2,3,4,5,6,7,0,1,2,3,4,5,6,7,0,1,2,3,4,5,6,7,0,1,2,3,4,5,6,7,0,1,2,3,4,5,6,7,0,1,2,3,4,5,6,7,0,1,2,3,4,5,6,7,0,1,2,3,4,5,6,7,0,1,2,3,4,5,6,7,0,1,2,3,4,5,6,7,0,1,2,3,4,5,6,7,0,1,2,3,4,5,6,7,0,1,2,3,4,5,6,7,0,1,2,3,4,5,6,7,0,1,2,3,4,5,6,7,0,1,2,3,4,5,6,7,0,1,2,3,4,5,6,7,0,1,2,3,4,5,6,7,0,1,2,3,4,5,6,7,0,1,2,3,4,5,6,7,0,1,2,3,4,5,6,7,0,1,2,3,4,5,6,7,0,1,2,3,4,5,6,7,0,1,2,3,4,5,6,7,0,1,2,3,4,5,6,7,0,1,2,3,4,5,6,7,0,1,2,3,4,5,6,7,0,1,2,3,4,5,6,7,0,1,2,3,4,5,6,7,0,1,2,3,4,5,6,7,0,1,2,3,4,5,6,7,0,1,2,3,4,5,6,7,0,1,2,3,4,5,6,7,0,1,2,3,4,5,6,7,0,1,2,3,4,5,6,7,0,1,2,3,4,5,6,7,0,1,2,3,4,5,6,7,0,1,2,3,4,5,6,7,0,1,2,3,4,5,6,7,0,1,2,3,4,5,6,7,0,1,2,3,4,5,6,7,0,1,2,3,4,5,6,7,0,1,2,3,4,5,6,7,0,1,2,3,4,5,6,7,0,1,2,3,4,5,6,7,0,1,2,3,4,5,6,7,0,1,2,3,4,5,6,7,0,1,2,3,4,5,6,7,0,1,2,3,4,5,6,7,0,1,2,3,4,5,6,7,0,1,2,3,4,5,6,7,0,1,2,3,4,5,6,7,0,1,2,3,4,5,6,7,0,1,2,3,4,5,6,7,0,1,2,3,4,5,6,7,0,1,2,3,4,5,6,7,0,1,2,3,4,5,6,7,0,1,2,3,4,5,6,7,0,1,2,3,4,5,6,7,0,1,2,3,4,5,6,7,0,1,2,3,4,5,6,7,0,1,2,3,4,5,6,7,0,1,2,3,4,5,6,7,0,1,2,3,4,5,6,7,0,1,2,3,4,5,6,7,0,1,2,3,4,5,6,7,0,1,2,3,4,5,6,7,0,1,2,3,4,5,6,7,0,1,2,3,4,5,6,7,0,1,2,3,4,5,6,7,0,1,2,3,4,5,6,7,0,1,2,3,4,5,6,7,0,1,2,3,4,5,6,7,0,1,2,3,4,5,6,7,0,1,2,3,4,5,6,7,0,1,2,3,4,5,6,7,0,1,2,3,4,5,6,7,0,1,2,3,4,5,6,7,0,1,2,3,4,5,6,7,0,1,2,3,4,5,6,7,0,1,2,3,4,5,6,7,0,1,2,3,4,5,6,7,0,1,2,3,4,5,6,7,0,1,2,3,4,5,6,7,0,1,2,3,4,5,6,7,0,1,2,3,4,5,6,7,0,1,2,3,4,5,6,7,0,1,2,3,4,5,6,7,0,1,2,3,4,5,6,7,0,1,2,3,4,5,6,7,0,1,2,3,4,5,6,7,0,1,2,3,4,5,6,7,0,1,2,3,4,5,6,7,0,1,2,3,4,5,6,7,0,1,2,3,4,5,6,7,0,1,2,3,4,5,6,7,0,1,2,3,4,5,6,7,0,1,2,3,4,5,6,7,0,1,2,3,4,5,6,7,0,1,2,3,4,5,6,7,0,1,2,3,4,5,6,7,0,1,2,3,4,5,6,7,0,1,2,3,4,5,6,7,0,1,2,3,4,5,6,7,0,1,2,3,4,5,6,7,0,1,2,3,4,5,6,7,0,1,2,3,4,5,6,7,0,1,2,3,4,5,6,7,0,1,2,3,4,5,6,7,0,1,2,3,4,5,6,7,0,1,2,3,4,5,6,7,0,1,2,3,4,5,6,7,0,1,2,3,4,5,6,7,0,1,2,3,4,5,6,7,0,1,2,3,4,5,6,7,0,1,2,3,4,5,6,7,0,1,2,3,4,5,6,7,0,1,2,3,4,5,6,7,0,1,2,3,4,5,6,7,0,1,2,3,4,5,6,7,0,1,2,3,4,5,6,7,0,1,2,3,4,5,6,7,0,1,2,3,4,5,6,7,0,1,2,3,4,5,6,7,0,1,2,3,4,5,6,7,0,1,2,3,4,5,6,7,0,1,2,3,4,5,6,7,0,1,2,3,4,5,6,7,0,1,2,3,4,5,6,7,0,1,2,3,4,5,6,7,0,1,2,3,4,5,6,7,0,1,2,3,4,5,6,7,0,1,2,3,4,5,6,7,0,1,2,3,4,5,6,7,0,1,2,3,4,5,6,7,0,1,2,3,4,5,6,7,0,1,2,3,4,5,6,7,0,1,2,3,4,5,6,7,0,1,2,3,4,5,6,7,0,1,2,3,4,5,6,7,0,1,2,3,4,5,6,7,0,1,2,3,4,5,6,7,0,1,2,3,4,5,6,7,0,1,2,3,4,5,6,7,0,1,2,3,4,5,6,7,0,1,2,3,4,5,6,7,0,1,2,3,4,5,6,7,0,1,2,3,4,5,6,7,0,1,2,3,4,5,6,7,0,1,2,3,4,5,6,7,0,1,2,3,4,5,6,7,0,1,2,3,4,5,6,7,0,1,2,3,4,5,6,7,0,1,2,3,4,5,6,7,0,1,2,3,4,5,6,7,0,1,2,3,4,5,6,7,0,1,2,3,4,5,6,7,0,1,2,3,4,5,6,7,0,1,2,3,4,5,6,7,0,1,2,3,4,5,6,7,0,1,2,3,4,5,6,7,0,1,2,3,4,5,6,7,0,1,2,3,4,5,6,7,0,1,2,3,4,5,6,7,0,1,2,3,4,5,6,7,0,1,2,3,4,5,6,7,0,1,2,3,4,5,6,7,0,1,2,3,4,5,6,7,0,1,2,3,4,5,6,7,0,1,2,3,4,5,6,7,0,1,2,3,4,5,6,7,0,1,2,3,4,5,6,7,0,1,2,3,4,5,6,7,0,1,2,3,4,5,6,7,0,1,2,3,4,5,6,7,0,1,2,3,4,5,6,7,0,1,2,3,4,5,6,7,0,1,2,3,4,5,6,7,0,1,2,3,4,5,6,7,0,1,2,3,4,5,6,7,0,1,2,3,4,5,6,7,0,1,2,3,4,5,6,7,0,1,2,3,4,5,6,7,0,1,2,3,4,5,6,7,0,1,2,3,4,5,6,7,0,1,2,3,4,5,6,7,0,1,2,3,4,5,6,7,0,1,2,3,4,5,6,7,0,1,2,3,4,5,6,7,0,1,2,3,4,5,6,7,0,1,2,3,4,5,6,7,0,1,2,3,4,5,6,7,0,1,2,3,4,5,6,7,0,1,2,3,4,5,6,7,0,1,2,3,4,5,6,7,0,1,2,3,4,5,6,7,0,1,2,3,4,5,6,7,0,1,2,3,4,5,6,7,0,1,2,3,4,5,6,7,0,1,2,3,4,5,6,7,0,1,2,3,4,5,6,7,0,1,2,3,4,5,6,7,0,1,2,3,4,5,6,7,0,1,2,3,4,5,6,7,0,1,2,3,4,5,6,7,0,1,2,3,4,5,6,7,0,1,2,3,4,5,6,7,0,1,2,3,4,5,6,7,0,1,2,3,4,5,6,7,0,1,2,3,4,5,6,7,0,1,2,3,4,5,6,7,0,1,2,3,4,5,6,7,0,1,2,3,4,5,6,7,0,1,2,3,4,5,6,7,0,1,2,3,4,5,6,7,0,1,2,3,4,5,6,7,0,1,2,3,4,5,6,7,0,1,2,3,4,5,6,7,0,1,2,3,4,5,6,7,0,1,2,3,4,5,6,7,0,1,2,3,4,5,6,7,0,1,2,3,4,5,6,7,0,1,2,3,4,5,6,7,0,1,2,3,4,5,6,7,0,1,2,3,4,5,6,7,0,1,2,3,4,5,6,7,0,1,2,3,4,5,6,7,0,1,2,3,4,5,6,7,0,1,2,3,4,5,6,7,0,1,2,3,4,5,6,7,0,1,2,3,4,5,6,7,0,1,2,3,4,5,6,7,0,1,2,3,4,5,6,7,0,1,2,3,4,5,6,7,0,1,2,3,4,5,6,7,0,1,2,3,4,5,6,7,0,1,2,3,4,5,6,7,0,1,2,3,4,5,6,7,0,1,2,3,4,5,6,7,0,1,2,3,4,5,6,7,0,1,2,3,4,5,6,7,0,1,2,3,4,5,6,7,0,1,2,3,4,5,6,7,0,1,2,3,4,5,6,7,0,1,2,3,4,5,6,7,0,1,2,3,4,5,6,7,0,1,2,3,4,5,6,7,0,1,2,3,4,5,6,7,0,1,2,3,4,5,6,7,0,1,2,3,4,5,6,7,0,1,2,3,4,5,6,7,0,1,2,3,4,5,6,7,0,1,2,3,4,5,6,7,0,1,2,3,4,5,6,7,0,1,2,3,4,5,6,7,0,1,2,3,4,5,6,7,0,1,2,3,4,5,6,7,0,1,2,3,4,5,6,7,0,1,2,3,4,5,6,7,0,1,2,3,4,5,6,7,0,1,2,3,4,5,6,7,0,1,2,3,4,5,6,7,0,1,2,3,4,5,6,7,0,1,2,3,4,5,6,7,0,1,2,3,4,5,6,7,0,1,2,3,4,5,6,7,0,1,2,3,4,5,6,7,0,1,2,3,4,5,6,7,0,1,2,3,4,5,6,7,0,1,2,3,4,5,6,7,0,1,2,3,4,5,6,7,0,1,2,3,4,5,6,7,0,1,2,3,4,5,6,7,0,1,2,3,4,5,6,7,0,1,2,3,4,5,6,7,0,1,2,3,4,5,6,7,0,1,2,3,4,5,6,7,0,1,2,3,4,5,6,7,0,1,2,3,4,5,6,7,0,1,2,3,4,5,6,7,0,1,2,3,4,5,6,7,0,1,2,3,4,5,6,7,0,1,2,3,4,5,6,7,0,1,2,3,4,5,6,7,0,1,2,3,4,5,6,7,0,1,2,3,4,5,6,7,0,1,2,3,4,5,6,7,0,1,2,3,4,5,6,7,0,1,2,3,4,5,6,7,0,1,2,3,4,5,6,7,0,1,2,3,4,5,6,7,0,1,2,3,4,5,6,7,0,1,2,3,4,5,6,7,0,1,2,3,4,5,6,7,0,1,2,3,4,5,6,7,0,1,2,3,4,5,6,7,0,1,2,3,4,5,6,7,0,1,2,3,4,5,6,7,0,1,2,3,4,5,6,7,0,1,2,3,4,5,6,7,0,1,2,3,4,5,6,7,0,1,2,3,4,5,6,7,0,1,2,3,4,5,6,7,0,1,2,3,4,5,6,7,0,1,2,3,4,5,6,7,0,1,2,3,4,5,6,7,0,1,2,3,4,5,6,7,0,1,2,3,4,5,6,7,0,1,2,3,4,5,6,7,0,1,2,3,4,5,6,7,0,1,2,3,4,5,6,7,0,1,2,3,4,5,6,7,0,1,2,3,4,5,6,7,0,1,2,3,4,5,6,7,0,1,2,3,4,5,6,7,0,1,2,3,4,5,6,7,0,1,2,3,4,5,6,7,0,1,2,3,4,5,6,7,0,1,2,3,4,5,6,7,0,1,2,3,4,5,6,7,0,1,2,3,4,5,6,7,0,1,2,3,4,5,6,7,0,1,2,3,4,5,6,7,0,1,2,3,4,5,6,7,0,1,2,3,4,5,6,7,0,1,2,3,4,5,6,7,0,1,2,3,4,5,6,7,0,1,2,3,4,5,6,7,0,1,2,3,4,5,6,7,0,1,2,3,4,5,6,7,0,1,2,3,4,5,6,7,0,1,2,3,4,5,6,7,0,1,2,3,4,5,6,7,0,1,2,3,4,5,6,7,0,1,2,3,4,5,6,7,0,1,2,3,4,5,6,7,0,1,2,3,4,5,6,7,0,1,2,3,4,5,6,7,0,1,2,3,4,5,6,7,0,1,2,3,4,5,6,7,0,1,2,3,4,5,6,7,0,1,2,3,4,5,6,7,0,1,2,3,4,5,6,7,0,1,2,3,4,5,6,7,0,1,2,3,4,5,6,7,0,1,2,3,4,5,6,7,0,1,2,3,4,5,6,7,0,1,2,3,4,5,6,7,0,1,2,3,4,5,6,7,0,1,2,3,4,5,6,7,0,1,2,3,4,5,6,7,0,1,2,3,4,5,6,7,0,1,2,3,4,5,6,7,0,1,2,3,4,5,6,7,0,1,2,3,4,5,6,7,0,1,2,3,4,5,6,7,0,1,2,3,4,5,6,7,0,1,2,3,4,5,6,7,0,1,2,3,4,5,6,7,0,1,2,3,4,5,6,7,0,1,2,3,4,5,6,7,0,1,2,3,4,5,6,7,0,1,2,3,4,5,6,7,0,1,2,3,4,5,6,7,0,1,2,3,4,5,6,7,0,1,2,3,4,5,6,7,0,1,2,3,4,5,6,7,0,1,2,3,4,5,6,7,0,1,2,3,4,5,6,7,0,1,2,3,4,5,6,7,0,1,2,3,4,5,6,7,0,1,2,3,4,5,6,7,0,1,2,3,4,5,6,7,0,1,2,3,4,5,6,7,0,1,2,3,4,5,6,7,0,1,2,3,4,5,6,7,0,1,2,3,4,5,6,7,0,1,2,3,4,5,6,7,0,1,2,3,4,5,6,7,0,1,2,3,4,5,6,7,0,1,2,3,4,5,6,7,0,1,2,3,4,5,6,7,0,1,2,3,4,5,6,7,0,1,2,3,4,5,6,7,0,1,2,3,4,5,6,7,0,1,2,3,4,5,6,7,0,1,2,3,4,5,6,7,0,1,2,3,4,5,6,7,0,1,2,3,4,5,6,7,0,1,2,3,4,5,6,7,0,1,2,3,4,5,6,7,0,1,2,3,4,5,6,7,0,1,2,3,4,5,6,7,0,1,2,3,4,5,6,7,0,1,2,3,4,5,6,7,0,1,2,3,4,5,6,7,0,1,2,3,4,5,6,7,0,1,2,3,4,5,6,7,0,1,2,3,4,5,6,7,0,1,2,3,4,5,6,7,0,1,2,3,4,5,6,7,0,1,2,3,4,5,6,7,0,1,2,3,4,5,6,7,0,1,2,3,4,5,6,7,0,1,2,3,4,5,6,7,0,1,2,3,4,5,6,7,0,1,2,3,4,5,6,7,0,1,2,3,4,5,6,7,0,1,2,3,4,5,6,7,0,1,2,3,4,5,6,7,0,1,2,3,4,5,6,7,0,1,2,3,4,5,6,7,0,1,2,3,4,5,6,7,0,1,2,3,4,5,6,7,0,1,2,3,4,5,6,7,0,1,2,3,4,5,6,7,0,1,2,3,4,5,6,7,0,1,2,3,4,5,6,7,0,1,2,3,4,5,6,7,0,1,2,3,4,5,6,7,0,1,2,3,4,5,6,7,0,1,2,3,4,5,6,7,0,1,2,3,4,5,6,7,0,1,2,3,4,5,6,7,0,1,2,3,4,5,6,7,0,1,2,3,4,5,6,7,0,1,2,3,4,5,6,7,0,1,2,3,4,5,6,7,0,1,2,3,4,5,6,7,0,1,2,3,4,5,6,7,0,1,2,3,4,5,6,7,0,1,2,3,4,5,6,7,0,1,2,3,4,5,6,7,0,1,2,3,4,5,6,7,0,1,2,3,4,5,6,7,0,1,2,3,4,5,6,7,0,1,2,3,4,5,6,7,0,1,2,3,4,5,6,7,0,1,2,3,4,5,6,7,0,1,2,3,4,5,6,7,0,1,2,3,4,5,6,7,0,1,2,3,4,5,6,7,0,1,2,3,4,5,6,7,0,1,2,3,4,5,6,7,0,1,2,3,4,5,6,7,0,1,2,3,4,5,6,7,0,1,2,3,4,5,6,7,0,1,2,3,4,5,6,7,0,1,2,3,4,5,6,7,0,1,2,3,4,5,6,7,0,1,2,3,4,5,6,7,0,1,2,3,4,5,6,7,0,1,2,3,4,5,6,7,0,1,2,3,4,5,6,7,0,1,2,3,4,5,6,7,0,1,2,3,4,5,6,7,0,1,2,3,4,5,6,7,0,1,2,3,4,5,6,7,0,1,2,3,4,5,6,7,0,1,2,3,4,5,6,7,0,1,2,3,4,5,6,7,0,1,2,3,4,5,6,7,0,1,2,3,4,5,6,7,0,1,2,3,4,5,6,7,0,1,2,3,4,5,6,7,0,1,2,3,4,5,6,7,0,1,2,3,4,5,6,7,0,1,2,3,4,5,6,7,0,1,2,3,4,5,6,7,0,1,2,3,4,5,6,7,0,1,2,3,4,5,6,7,0,1,2,3,4,5,6,7,0,1,2,3,4,5,6,7,0,1,2,3,4,5,6,7,0,1,2,3,4,5,6,7,0,1,2,3,4,5,6,7,0,1,2,3,4,5,6,7,0,1,2,3,4,5,6,7,0,1,2,3,4,5,6,7,0,1,2,3,4,5,6,7,0,1,2,3,4,5,6,7,0,1,2,3,4,5,6,7,0,1,2,3,4,5,6,7,0,1,2,3,4,5,6,7,0,1,2,3,4,5,6,7,0,1,2,3,4,5,6,7,0,1,2,3,4,5,6,7,0,1,2,3,4,5,6,7,0,1,2,3,4,5,6,7,0,1,2,3,4,5,6,7,0,1,2,3,4,5,6,7,0,1,2,3,4,5,6,7,0,1,2,3,4,5,6,7,0,1,2,3,4,5,6,7,0,1,2,3,4,5,6,7,0,1,2,3,4,5,6,7,0,1,2,3,4,5,6,7,0,1,2,3,4,5,6,7,0,1,2,3,4,5,6,7,0,1,2,3,4,5,6,7,0,1,2,3,4,5,6,7,0,1,2,3,4,5,6,7,0,1,2,3,4,5,6,7,0,1,2,3,4,5,6,7,0,1,2,3,4,5,6,7,0,1,2,3,4,5,6,7,0,1,2,3,4,5,6,7,0,1,2,3,4,5,6,7,0,1,2,3,4,5,6,7,0,1,2,3,4,5,6,7,0,1,2,3,4,5,6,7,0,1,2,3,4,5,6,7,0,1,2,3,4,5,6,7,0,1,2,3,4,5,6,7,0,1,2,3,4,5,6,7,0,1,2,3,4,5,6,7,0,1,2,3,4,5,6,7,0,1,2,3,4,5,6,7,0,1,2,3,4,5,6,7,0,1,2,3,4,5,6,7,0,1,2,3,4,5,6,7,0,1,2,3,4,5,6,7,0,1,2,3,4,5,6,7,0,1,2,3,4,5,6,7,0,1,2,3,4,5,6,7,0,1,2,3,4,5,6,7,0,1,2,3,4,5,6,7,0,1,2,3,4,5,6,7,0,1,2,3,4,5,6,7,0,1,2,3,4,5,6,7,0,1,2,3,4,5,6,7,0,1,2,3,4,5,6,7,0,1,2,3,4,5,6,7,0,1,2,3,4,5,6,7,0,1,2,3,4,5,6,7,0,1,2,3,4,5,6,7,0,1,2,3,4,5,6,7,0,1,2,3,4,5,6,7,0,1,2,3,4,5,6,7,0,1,2,3,4,5,6,7,0,1,2,3,4,5,6,7,0,1,2,3,4,5,6,7,0,1,2,3,4,5,6,7,0,1,2,3,4,5,6,7,0,1,2,3,4,5,6,7,0,1,2,3,4,5,6,7,0,1,2,3,4,5,6,7,0,1,2,3,4,5,6,7,0,1,2,3,4,5,6,7,0,1,2,3,4,5,6,7,0,1,2,3,4,5,6,7,0,1,2,3,4,5,6,7,0,1,2,3,4,5,6,7,0,1,2,3,4,5,6,7,0,1,2,3,4,5,6,7,0,1,2,3,4,5,6,7,0,1,2,3,4,5,6,7,0,1,2,3,4,5,6,7,0,1,2,3,4,5,6,7,0,1,2,3,4,5,6,7,0,1,2,3,4,5,6,7,0,1,2,3,4,5,6,7,0,1,2,3,4,5,6,7,0,1,2,3,4,5,6,7,0,1,2,3,4,5,6,7,0,1,2,3,4,5,6,7,0,1,2,3,4,5,6,7,0,1,2,3,4,5,6,7,0,1,2,3,4,5,6,7,0,1,2,3,4,5,6,7,0,1,2,3,4,5,6,7,0,1,2,3,4,5,6,7,0,1,2,3,4,5,6,7,0,1,2,3,4,5,6,7,0,1,2,3,4,5,6,7,0,1,2,3,4,5,6,7,0,1,2,3,4,5,6,7,0,1,2,3,4,5,6,7,0,1,2,3,4,5,6,7,0,1,2,3,4,5,6,7,0,1,2,3,4,5,6,7,0,1,2,3,4,5,6,7,0,1,2,3,4,5,6,7,0,1,2,3,4,5,6,7,0,1,2,3,4,5,6,7,0,1,2,3,4,5,6,7,0,1,2,3,4,5,6,7,0,1,2,3,4,5,6,7,0,1,2,3,4,5,6,7,0,1,2,3,4,5,6,7,0,1,2,3,4,5,6,7,0,1,2,3,4,5,6,7,0,1,2,3,4,5,6,7,0,1,2,3,4,5,6,7,0,1,2,3,4,5,6,7,0,1,2,3,4,5,6,7,0,1,2,3,4,5,6,7,0,1,2,3,4,5,6,7,0,1,2,3,4,5,6,7,0,1,2,3,4,5,6,7,0,1,2,3,4,5,6,7,0,1,2,3,4,5,6,7,0,1,2,3,4,5,6,7,0,1,2,3,4,5,6,7,0,1,2,3,4,5,6,7,0,1,2,3,4,5,6,7,0,1,2,3,4,5,6,7,0,1,2,3,4,5,6,7,0,1,2,3,4,5,6,7,0,1,2,3,4,5,6,7,0,1,2,3,4,5,6,7,0,1,2,3,4,5,6,7,0,1,2,3,4,5,6,7,0,1,2,3,4,5,6,7,0,1,2,3,4,5,6,7,0,1,2,3,4,5,6,7,0,1,2,3,4,5,6,7,0,1,2,3,4,5,6,7,0,1,2,3,4,5,6,7,0,1,2,3,4,5,6,7,0,1,2,3,4,5,6,7,0,1,2,3,4,5,6,7,0,1,2,3,4,5,6,7,0,1,2,3,4,5,6,7,0,1,2,3,4,5,6,7,0,1,2,3,4,5,6,7,0,1,2,3,4,5,6,7,0,1,2,3,4,5,6,7,0,1,2,3,4,5,6,7,0,1,2,3,4,5,6,7,0,1,2,3,4,5,6,7,0,1,2,3,4,5,6,7,0,1,2,3,4,5,6,7,0,1,2,3,4,5,6,7,0,1,2,3,4,5,6,7,0,1,2,3,4,5,6,7,0,1,2,3,4,5,6,7,0,1,2,3,4,5,6,7,0,1,2,3,4,5,6,7,0,1,2,3,4,5,6,7,0,1,2,3,4,5,6,7,0,1,2,3,4,5,6,7,0,1,2,3,4,5,6,7,0,1,2,3,4,5,6,7,0,1,2,3,4,5,6,7,0,1,2,3,4,5,6,7,0,1,2,3,4,5,6,7,0,1,2,3,4,5,6,7,0,1,2,3,4,5,6,7,0,1,2,3,4,5,6,7,0,1,2,3,4,5,6,7,0,1,2,3,4,5,6,7,0,1,2,3,4,5,6,7,0,1,2,3,4,5,6,7,0,1,2,3,4,5,6,7,0,1,2,3,4,5,6,7,0,1,2,3,4,5,6,7,0,1,2,3,4,5,6,7,0,1,2,3,4,5,6,7,0,1,2,3,4,5,6,7,0,1,2,3,4,5,6,7,0,1,2,3,4,5,6,7,0,1,2,3,4,5,6,7,0,1,2,3,4,5,6,7,0,1,2,3,4,5,6,7,0,1,2,3,4,5,6,7,0,1,2,3,4,5,6,7,0,1,2,3,4,5,6,7,0,1,2,3,4,5,6,7,0,1,2,3,4,5,6,7,0,1,2,3,4,5,6,7,0,1,2,3,4,5,6,7,0,1,2,3,4,5,6,7,0,1,2,3,4,5,6,7,0,1,2,3,4,5,6,7,0,1,2,3,4,5,6,7,0,1,2,3,4,5,6,7,0,1,2,3,4,5,6,7,0,1,2,3,4,5,6,7,0,1,2,3,4,5,6,7,0,1,2,3,4,5,6,7,0,1,2,3,4,5,6,7,0,1,2,3,4,5,6,7,0,1,2,3,4,5,6,7,0,1,2,3,4,5,6,7,0,1,2,3,4,5,6,7,0,1,2,3,4,5,6,7,0,1,2,3,4,5,6,7,0,1,2,3,4,5,6,7,0,1,2,3,4,5,6,7,0,1,2,3,4,5,6,7,0,1,2,3,4,5,6,7,0,1,2,3,4,5,6,7,0,1,2,3,4,5,6,7,0,1,2,3,4,5,6,7,0,1,2,3,4,5,6,7,0,1,2,3,4,5,6,7,0,1,2,3,4,5,6,7,0,1,2,3,4,5,6,7,0,1,2,3,4,5,6,7,0,1,2,3,4,5,6,7,0,1,2,3,4,5,6,7,0,1,2,3,4,5,6,7,0,1,2,3,4,5,6,7,0,1,2,3,4,5,6,7,0,1,2,3,4,5,6,7,0,1,2,3,4,5,6,7,0,1,2,3,4,5,6,7,0,1,2,3,4,5,6,7,0,1,2,3,4,5,6,7,0,1,2,3,4,5,6,7,0,1,2,3,4,5,6,7,0,1,2,3,4,5,6,7,0,1,2,3,4,5,6,7,0,1,2,3,4,5,6,7,0,1,2,3,4,5,6,7,0,1,2,3,4,5,6,7,0,1,2,3,4,5,6,7,0,1,2,3,4,5,6,7,0,1,2,3,4,5,6,7,0,1,2,3,4,5,6,7,0,1,2,3,4,5,6,7,0,1,2,3,4,5,6,7,0,1,2,3,4,5,6,7,0,1,2,3,4,5,6,7,0,1,2,3,4,5,6,7,0,1,2,3,4,5,6,7,0,1,2,3,4,5,6,7,0,1,2,3,4,5,6,7,0,1,2,3,4,5,6,7,0,1,2,3,4,5,6,7,0,1,2,3,4,5,6,7,0,1,2,3,4,5,6,7,0,1,2,3,4,5,6,7,0,1,2,3,4,5,6,7,0,1,2,3,4,5,6,7,0,1,2,3,4,5,6,7,0,1,2,3,4,5,6,7,0,1,2,3,4,5,6,7,0,1,2,3,4,5,6,7,0,1,2,3,4,5,6,7,0,1,2,3,4,5,6,7,0,1,2,3,4,5,6,7,0,1,2,3,4,5,6,7,0,1,2,3,4,5,6,7,0,1,2,3,4,5,6,7,0,1,2,3,4,5,6,7,0,1,2,3,4,5,6,7,0,1,2,3,4,5,6,7,0,1,2,3,4,5,6,7,0,1,2,3,4,5,6,7,0,1,2,3,4,5,6,7,0,1,2,3,4,5,6,7,0,1,2,3,4,5,6,7,0,1,2,3,4,5,6,7,0,1,2,3,4,5,6,7,0,1,2,3,4,5,6,7,0,1,2,3,4,5,6,7,0,1,2,3,4,5,6,7,0,1,2,3,4,5,6,7,0,1,2,3,4,5,6,7,0,1,2,3,4,5,6,7,0,1,2,3,4,5,6,7,0,1,2,3,4,5,6,7,0,1,2,3,4,5,6,7,0,1,2,3,4,5,6,7,0,1,2,3,4,5,6,7,0,1,2,3,4,5,6,7,0,1,2,3,4,5,6,7,0,1,2,3,4,5,6,7,0,1,2,3,4,5,6,7,0,1,2,3,4,5,6,7,0,1,2,3,4,5,6,7,0,1,2,3,4,5,6,7,0,1,2,3,4,5,6,7,0,1,2,3,4,5,6,7,0,1,2,3,4,5,6,7,0,1,2,3,4,5,6,7,0,1,2,3,4,5,6,7,0,1,2,3,4,5,6,7,0,1,2,3,4,5,6,7,0,1,2,3,4,5,6,7,0,1,2,3,4,5,6,7,0,1,2,3,4,5,6,7,0,1,2,3,4,5,6,7,0,1,2,3,4,5,6,7,0,1,2,3,4,5,6,7,0,1,2,3,4,5,6,7,0,1,2,3,4,5,6,7,0,1,2,3,4,5,6,7,0,1,2,3,4,5,6,7,0,1,2,3,4,5,6,7,0,1,2,3,4,5,6,7,0,1,2,3,4,5,6,7,0,1,2,3,4,5,6,7,0,1,2,3,4,5,6,7,0,1,2,3,4,5,6,7,0,1,2,3,4,5,6,7,0,1,2,3,4,5,6,7,0,1,2,3,4,5,6,7,0,1,2,3,4,5,6,7,0,1,2,3,4,5,6,7,0,1,2,3,4,5,6,7,0,1,2,3,4,5,6,7,0,1,2,3,4,5,6,7,0,1,2,3,4,5,6,7,0,1,2,3,4,5,6,7,0,1,2,3,4,5,6,7,0,1,2,3,4,5,6,7,0,1,2,3,4,5,6,7,0,1,2,3,4,5,6,7,0,1,2,3,4,5,6,7,0,1,2,3,4,5,6,7,0,1,2,3,4,5,6,7,0,1,2,3,4,5,6,7,0,1,2,3,4,5,6,7,0,1,2,3,4,5,6,7,0,1,2,3,4,5,6,7,0,1,2,3,4,5,6,7,0,1,2,3,4,5,6,7,0,1,2,3,4,5,6,7,0,1,2,3,4,5,6,7,0,1,2,3,4,5,6,7,0,1,2,3,4,5,6,7,0,1,2,3,4,5,6,7,0,1,2,3,4,5,6,7],"trees":[{"base_weights":[-1.7565872E-1,1.4354068E-1,-3.2085562E-1,-1.3055143E-1,2.1940929E-1,-3.5643566E-2,1.1692309E-1],"categories":[],"categories_nodes":[],"categories_segments":[],"categories_sizes":[],"default_left":[0,0,0,0,0,0,0],"id":0,"left_children":[1,-1,3,-1,5,-1,-1],"loss_changes":[3.1331253E0,0E0,1.9210618E0,0E0,6.582098E-1,0E0,0E0],"parents":[2147483647,0,0,2,2,4,4],"right_children":[2,-1,4,-1,6,-1,-1],"split_conditions":[-3.5017326E-1,1.4354068E-1,8.0604255E-2,-1.3055143E-1,1.0224694E-1,-3.5643566E-2,1.1692309E-1],"split_indices":[411,0,279,0,5,0,0],"split_type":[0,0,0,0,0,0,0],"sum_hessian":[1.990625E1,1.53125E0,1.8375E1,1.596875E1,2.40625E0,1.3125E0,1.09375E0],"tree_param":{"num_deleted":"0","num_feature":"768","num_nodes":"7","size_leaf_vector":"1"}},{"base_weights":[-2.4447334E-1,2.1538463E-1,-1.3405995E-1],"categories":[],"categories_nodes":[],"categories_segments":[],"categories_sizes":[],"default_left":[0,0,0],"id":1,"left_children":[1,-1,-1],"loss_changes":[6.285126E0,0E0,0E0],"parents":[2147483647,0,0],"right_children":[2,-1,-1],"split_conditions":[-1.7847079E-1,2.1538463E-1,-1.3405995E-1],"split_indices":[299,0,0],"split_type":[0,0,0],"sum_hessian":[1.903125E1,1.09375E0,1.79375E1],"tree_param":{"num_deleted":"0","num_feature":"768","num_nodes":"3","size_leaf_vector":"1"}},{"base_weights":[2.0022702E0,3.501326E-1,2.4578314E0,8.12749E-1,-7.552448E-2,2.6263912E0,-3.0769233E-2,2.8133973E-1,1.18811885E-2,8.121212E-1,6.769231E-2],"categories":[],"categories_nodes":[],"categories_segments":[],"categories_sizes":[],"default_left":[0,0,0,0,0,0,0,0,0,0,0],"id":2,"left_children":[1,3,5,7,-1,9,-1,-1,-1,-1,-1],"loss_changes":[1.6418549E1,4.3034115E0,1.0302139E1,5.726452E-1,0E0,7.5312805E-1,0E0,0E0,0E0,0E0,0E0],"parents":[2147483647,0,0,1,1,2,2,3,3,5,5],"right_children":[2,4,6,8,-1,10,-1,-1,-1,-1,-1],"split_conditions":[-3.2770693E-1,-1.07856415E-1,-5.1816255E-1,3.6223926E-2,-7.552448E-2,6.856315E-2,-3.0769233E-2,2.8133973E-1,1.18811885E-2,8.121212E-1,6.769231E-2],"split_indices":[623,42,630,40,0,27,0,0,0,0,0],"split_type":[0,0,0,0,0,0,0,0,0,0,0],"sum_hessian":[2.253125E1,6.78125E0,1.575E1,2.84375E0,3.9375E0,1.465625E1,1.09375E0,1.53125E0,1.3125E0,1.35625E1,1.09375E0],"tree_param":{"num_deleted":"0","num_feature":"768","num_nodes":"11","size_leaf_vector":"1"}},{"base_weights":[-3.830303E-1,-1.3670887E-1,6.769231E-2],"categories":[],"categories_nodes":[],"categories_segments":[],"categories_sizes":[],"default_left":[0,0,0],"id":3,"left_children":[1,-1,-1],"loss_changes":[1.6544144E0,0E0,0E0],"parents":[2147483647,0,0],"right_children":[2,-1,-1],"split_conditions":[-5.417737E-1,-1.3670887E-1,6.769231E-2],"split_indices":[19,0,0],"split_type":[0,0,0],"sum_hessian":[2.078125E1,1.96875E1,1.09375E0],"tree_param":{"num_deleted":"0","num_feature":"768","num_nodes":"3","size_leaf_vector":"1"}},{"base_weights":[-3.2236096E-1,9.760766E-2,-4.2307693E-1,-1.3701381E-1,1.8461538E-2],"categories":[],"categories_nodes":[],"categories_segments":[],"categories_sizes":[],"default_left":[0,0,0,0,0],"id":4,"left_children":[1,-1,3,-1,-1],"loss_changes":[2.4842803E0,0E0,5.6433725E-1,0E0,0E0],"parents":[2147483647,0,0,2,2],"right_children":[2,-1,4,-1,-1],"split_conditions":[-1.8574557E-1,9.760766E-2,2.9621845E-1,-1.3701381E-1,1.8461538E-2],"split_indices":[486,0,0,0,0],"split_type":[0,0,0,0,0],"sum_hessian":[2.253125E1,1.53125E0,2.1E1,1.990625E1,1.09375E0],"tree_param":{"num_deleted":"0","num_feature":"768","num_nodes":"5","size_leaf_vector":"1"}},{"base_weights":[-3.0086315E-1,8.888889E-2,-4.0794703E-1,-1.3333334E-1,1.8461538E-2],"categories":[],"categories_nodes":[],"categories_segments":[],"categories_sizes":[],"default_left":[0,0,0,0,0],"id":5,"left_children":[1,-1,3,-1,-1],"loss_changes":[2.225001E0,0E0,5.410316E-1,0E0,0E0],"parents":[2147483647,0,0,2,2],"right_children":[2,-1,4,-1,-1],"split_conditions":[-3.3922893E-1,8.888889E-2,8.699466E-2,-1.3333334E-1,1.8461538E-2],"split_indices":[333,0,1,0,0],"split_type":[0,0,0,0,0],"sum_hessian":[2.034375E1,1.75E0,1.859375E1,1.75E1,1.09375E0],"tree_param":{"num_deleted":"0","num_feature":"768","num_nodes":"5","size_leaf_vector":"1"}},{"base_weights":[-4.2908225E-2,-3.421829E-1,6.105919E-1,-1.287714E-1,6.769231E-2,-5.2173916E-2,9.402391E-1,3.1111112E-1,1.8461538E-2],"categories":[],"categories_nodes":[],"categories_segments":[],"categories_sizes":[],"default_left":[0,0,0,0,0,0,0,0,0],"id":6,"left_children":[1,3,5,-1,-1,-1,7,-1,-1],"loss_changes":[6.1724296E0,1.5316076E0,3.411779E0,0E0,0E0,0E0,3.4807348E-1,0E0,0E0],"parents":[2147483647,0,0,1,1,2,2,6,6],"right_children":[2,4,6,-1,-1,-1,8,-1,-1],"split_conditions":[3.493351E-1,-6.6283494E-3,-1.2077614E-2,-1.287714E-1,6.769231E-2,-5.2173916E-2,-3.3068918E-2,3.1111112E-1,1.8461538E-2],"split_indices":[757,124,57,0,0,0,231,0,0],"split_type":[0,0,0,0,0,0,0,0,0],"sum_hessian":[2.121875E1,1.61875E1,5.03125E0,1.509375E1,1.09375E0,2.1875E0,2.84375E0,1.75E0,1.09375E0],"tree_param":{"num_deleted":"0","num_feature":"768","num_nodes":"9","size_leaf_vector":"1"}},{"base_weights":[-3.5555556E-1,6.769231E-2,-1.3138688E-1],"categories":[],"categories_nodes":[],"categories_segments":[],"categories_sizes":[],"default_left":[0,0,0],"id":7,"left_children":[1,-1,-1],"loss_changes":[1.5716512E0,0E0,0E0],"parents":[2147483647,0,0],"right_children":[2,-1,-1],"split_conditions":[-3.1168753E-1,6.769231E-2,-1.3138688E-1],"split_indices":[740,0,0],"split_type":[0,0,0],"sum_hessian":[1.75E1,1.09375E0,1.640625E1],"tree_param":{"num_deleted":"0","num_feature":"768","num_nodes":"3","size_leaf_vector":"1"}},{"base_weights":[-2.3436767E-1,3.849264E-1,-3.863477E-1,1.6287607E-1,-2.8788336E-2,-1.279112E-1,2.1682773E-2],"categories":[],"categories_nodes":[],"categories_segments":[],"categories_sizes":[],"default_left":[0,0,0,0,0,0,0],"id":8,"left_children":[1,3,5,-1,-1,-1,-1],"loss_changes":[2.9709802E0,8.050939E-1,5.4867935E-1,0E0,0E0,0E0,0E0],"parents":[2147483647,0,0,1,1,2,2],"right_children":[2,4,6,-1,-1,-1,-1],"split_conditions":[-8.8034555E-2,1.3948077E-1,-7.573661E-1,1.6287607E-1,-2.8788336E-2,-1.279112E-1,2.1682773E-2],"split_indices":[246,230,123,0,0,0,0],"split_type":[0,0,0,0,0,0,0],"sum_hessian":[1.8665478E1,2.167904E0,1.6497574E1,1.1463073E0,1.0215964E0,1.5496833E1,1.0007405E0],"tree_param":{"num_deleted":"0","num_feature":"768","num_nodes":"7","size_leaf_vector":"1"}},{"base_weights":[-1.8884826E-1,1.9981743E-1,-1.2512484E-1],"categories":[],"categories_nodes":[],"categories_segments":[],"categories_sizes":[],"default_left":[0,0,0],"id":9,"left_children":[1,-1,-1],"loss_changes":[5.4623675E0,0E0,0E0],"parents":[2147483647,0,0],"right_children":[2,-1,-1],"split_conditions":[-9.588031E-2,1.9981743E-1,-1.2512484E-1],"split_indices":[131,0,0],"split_type":[0,0,0],"sum_hessian":[1.5876276E1,1.3242941E0,1.4551982E1],"tree_param":{"num_deleted":"0","num_feature":"768","num_nodes":"3","size_leaf_vector":"1"}},{"base_weights":[1.1592702E0,-7.775623E-2,1.3420651E0,1.4375329E0,-3.6727387E-2,1.7171456E-2,4.6268386E-1,2.0315101E-2,-3.2897897E-2],"categories":[],"categories_nodes":[],"categories_segments":[],"categories_sizes":[],"default_left":[0,0,0,0,0,0,0,0,0],"id":10,"left_children":[1,-1,3,5,7,-1,-1,-1,-1],"loss_changes":[1.1512005E1,0E0,4.7654305E0,4.200775E0,9.1135874E-2,0E0,0E0,0E0,0E0],"parents":[2147483647,0,0,2,2,3,3,4,4],"right_children":[2,-1,4,6,8,-1,-1,-1,-1],"split_conditions":[1.8123707E-1,-7.775623E-2,9.908276E-1,-5.9542023E-2,-1.4094372E-1,1.7171456E-2,4.6268386E-1,2.0315101E-2,-3.2897897E-2],"split_indices":[464,0,410,330,21,0,0,0,0],"split_type":[0,0,0,0,0,0,0,0,0],"sum_hessian":[3.2690987E1,3.4933798E0,2.9197605E1,2.7107655E1,2.089951E0,2.4574118E0,2.4650244E1,1.0063399E0,1.0836112E0],"tree_param":{"num_deleted":"0","num_feature":"768","num_nodes":"9","size_leaf_vector":"1"}},{"base_weights":[-2.5282595E-1,1.1100967E-1,-3.7841982E-1,2.1796351E-2,-1.2585358E-1],"categories":[],"categories_nodes":[],"categories_segments":[],"categories_sizes":[],"default_left":[0,0,0,0,0],"id":11,"left_children":[1,-1,3,-1,-1],"loss_changes":[2.4248333E0,0E0,5.383012E-1,0E0,0E0],"parents":[2147483647,0,0,2,2],"right_children":[2,-1,4,-1,-1],"split_conditions":[9.5180786E-1,1.1100967E-1,4.543291E-1,2.1796351E-2,-1.2585358E-1],"split_indices":[350,0,156,0,0],"split_type":[0,0,0,0,0],"sum_hessian":[1.7047274E1,1.2276556E0,1.5819617E1,1.0001688E0,1.4819448E1],"tree_param":{"num_deleted":"0","num_feature":"768","num_nodes":"5","size_leaf_vector":"1"}},{"base_weights":[-2.4094456E-1,-3.9795268E-1,1.6635549E-1,-1.3064544E-1,2.1670975E-2],"categories":[],"categories_nodes":[],"categories_segments":[],"categories_sizes":[],"default_left":[0,0,0,0,0],"id":12,"left_children":[1,3,-1,-1,-1],"loss_changes":[4.1343575E0,5.663338E-1,0E0,0E0,0E0],"parents":[2147483647,0,0,1,1],"right_children":[2,4,-1,-1,-1],"split_conditions":[8.3583796E-1,1.0115E-1,1.6635549E-1,-1.3064544E-1,2.1670975E-2],"split_indices":[285,526,0,0,0],"split_type":[0,0,0,0,0],"sum_hessian":[1.9268534E1,1.8178984E1,1.0895505E0,1.7176912E1,1.0020709E0],"tree_param":{"num_deleted":"0","num_feature":"768","num_nodes":"5","size_leaf_vector":"1"}},{"base_weights":[-3.4548312E-1,7.0705965E-2,-1.28909E-1],"categories":[],"categories_nodes":[],"categories_segments":[],"categories_sizes":[],"default_left":[0,0,0],"id":13,"left_children":[1,-1,-1],"loss_changes":[1.5869989E0,0E0,0E0],"parents":[2147483647,0,0],"right_children":[2,-1,-1],"split_conditions":[-2.1552213E-1,7.0705965E-2,-1.28909E-1],"split_indices":[93,0,0],"split_type":[0,0,0],"sum_hessian":[1.707965E1,1.0234306E0,1.6056221E1],"tree_param":{"num_deleted":"0","num_feature":"768","num_nodes":"3","size_leaf_vector":"1"}},{"base_weights":[-5.9261747E-2,-2.8841212E-1,4.9679732E-1,-1.2544604E-1,9.001103E-2,2.3974667E-1,-4.9175423E-2],"categories":[],"categories_nodes":[],"categories_segments":[],"categories_sizes":[],"default_left":[0,0,0,0,0,0,0],"id":14,"left_children":[1,3,5,-1,-1,-1,-1],"loss_changes":[3.9360597E0,2.2349472E0,2.4949884E0,0E0,0E0,0E0,0E0],"parents":[2147483647,0,0,1,1,2,2],"right_children":[2,4,6,-1,-1,-1,-1],"split_conditions":[-2.9608373E-2,9.3896717E-1,1.1825897E-1,-1.2544604E-1,9.001103E-2,2.3974667E-1,-4.9175423E-2],"split_indices":[142,451,568,0,0,0,0],"split_type":[0,0,0,0,0,0,0],"sum_hessian":[2.0267769E1,1.6057259E1,4.2105103E0,1.4342097E1,1.7151618E0,2.1698735E0,2.0406365E0],"tree_param":{"num_deleted":"0","num_feature":"768","num_nodes":"7","size_leaf_vector":"1"}},{"base_weights":[-3.0110067E-1,8.3741784E-2,-1.2719601E-1],"categories":[],"categories_nodes":[],"categories_segments":[],"categories_sizes":[],"default_left":[0,0,0],"id":15,"left_children":[1,-1,-1],"loss_changes":[2.1813228E0,0E0,0E0],"parents":[2147483647,0,0],"right_children":[2,-1,-1],"split_conditions":[4.268262E-2,8.3741784E-2,-1.2719601E-1],"split_indices":[356,0,0],"split_type":[0,0,0],"sum_hessian":[1.7292994E1,1.9111816E0,1.5381813E1],"tree_param":{"num_deleted":"0","num_feature":"768","num_nodes":"3","size_leaf_vector":"1"}},{"base_weights":[-2.85412E-1,-1.2306147E-1,2.4679404E-1,1.2120675E-1,-3.1941656E-2],"categories":[],"categories_nodes":[],"categories_segments":[],"categories_sizes":[],"default_left":[0,0,0,0,0],"id":16,"left_children":[1,-1,3,-1,-1],"loss_changes":[1.923122E0,0E0,6.1356384E-1,0E0,0E0],"parents":[2147483647,0,0,2,2],"right_children":[2,-1,4,-1,-1],"split_conditions":[9.1076E-1,-1.2306147E-1,-9.651734E-1,1.2120675E-1,-3.1941656E-2],"split_indices":[482,0,28,0,0],"split_type":[0,0,0,0,0],"sum_hessian":[1.633449E1,1.4160328E1,2.174162E0,1.0074084E0,1.1667535E0],"tree_param":{"num_deleted":"0","num_feature":"768","num_nodes":"5","size_leaf_vector":"1"}},{"base_weights":[-1.287935E-1,1.997461E-1,-1.20682426E-1],"categories":[],"categories_nodes":[],"categories_segments":[],"categories_sizes":[],"default_left":[0,0,0],"id":17,"left_children":[1,-1,-1],"loss_changes":[5.7850313E0,0E0,0E0],"parents":[2147483647,0,0],"right_children":[2,-1,-1],"split_conditions":[-5.000541E-2,1.997461E-1,-1.20682426E-1],"split_indices":[300,0,0],"split_type":[0,0,0],"sum_hessian":[1.5458229E1,2.1213844E0,1.3336844E1],"tree_param":{"num_deleted":"0","num_feature":"768","num_nodes":"3","size_leaf_vector":"1"}},{"base_weights":[5.977744E-1,8.3306473E-1,-1.3913114E-2,-1.8906146E-2,9.873307E-1,-2.9607028E-1,1.4901853E-1,8.388862E-2,-7.582566E-2,3.267316E-1,-1.3402746E-2,5.488951E-2,-1.2372305E-1],"categories":[],"categories_nodes":[],"categories_segments":[],"categories_sizes":[],"default_left":[0,0,0,0,0,0,0,0,0,0,0,0,0],"id":18,"left_children":[1,3,5,7,9,11,-1,-1,-1,-1,-1,-1,-1],"loss_changes":[6.0350933E0,4.0460873E0,3.1061645E0,1.0177658E0,2.9277E0,1.1425415E0,0E0,0E0,0E0,0E0,0E0,0E0,0E0],"parents":[2147483647,0,0,1,1,2,2,3,3,4,4,5,5],"right_children":[2,4,6,8,10,12,-1,-1,-1,-1,-1,-1,-1],"split_conditions":[9.055861E-1,6.147393E-2,1.2496643E-1,-6.925666E-3,1.521481E-1,-7.418643E-1,1.4901853E-1,8.388862E-2,-7.582566E-2,3.267316E-1,-1.3402746E-2,5.488951E-2,-1.2372305E-1],"split_indices":[208,610,167,283,510,397,0,0,0,0,0,0,0],"split_type":[0,0,0,0,0,0,0,0,0,0,0,0,0],"sum_hessian":[3.6529785E1,2.507495E1,1.1454835E1,4.5168395E0,2.055811E1,8.73131E0,2.7235253E0,1.5540218E0,2.9628177E0,1.8460892E1,2.0972183E0,1.1466281E0,7.5846815E0],"tree_param":{"num_deleted":"0","num_feature":"768","num_nodes":"13","size_leaf_vector":"1"}},{"base_weights":[-2.1795948E-1,-1.1798638E-1,3.1585643E-1,1.622656E-1,-4.0219758E-2],"categories":[],"categories_nodes":[],"categories_segments":[],"categories_sizes":[],"default_left":[0,0,0,0,0],"id":19,"left_children":[1,-1,3,-1,-1],"loss_changes":[2.5023766E0,0E0,1.1464746E0,0E0,0E0],"parents":[2147483647,0,0,2,2],"right_children":[2,-1,4,-1,-1],"split_conditions":[1.22648194E-1,-1.1798638E-1,-2.8399438E-1,1.622656E-1,-4.0219758E-2],"split_indices":[402,0,130,0,0],"split_type":[0,0,0,0,0],"sum_hessian":[1.51004505E1,1.2357851E1,2.7425992E0,1.1543667E0,1.5882325E0],"tree_param":{"num_deleted":"0","num_feature":"768","num_nodes":"5","size_leaf_vector":"1"}},{"base_weights":[-1.9041042E-1,3.0725178E-1,-1.182838E-1,1.810724E-1,-5.2411966E-2],"categories":[],"categories_nodes":[],"categories_segments":[],"categories_sizes":[],"default_left":[0,0,0,0,0],"id":20,"left_children":[1,3,-1,-1,-1],"loss_changes":[2.7597747E0,1.8097243E0,0E0,0E0,0E0],"parents":[2147483647,0,0,1,1],"right_children":[2,4,-1,-1,-1],"split_conditions":[-2.4541314E-1,1.5844895E-1,-1.182838E-1,1.810724E-1,-5.2411966E-2],"split_indices":[322,439,0,0,0],"split_type":[0,0,0,0,0],"sum_hessian":[1.6231077E1,3.9800062E0,1.2251072E1,1.6833446E0,2.2966619E0],"tree_param":{"num_deleted":"0","num_feature":"768","num_nodes":"5","size_leaf_vector":"1"}},{"base_weights":[-4.090599E-1],"categories":[],"categories_nodes":[],"categories_segments":[],"categories_sizes":[],"default_left":[0],"id":21,"left_children":[-1],"loss_changes":[0E0],"parents":[2147483647],"right_children":[-1],"split_conditions":[-1.2271798E-1],"split_indices":[0],"split_type":[0],"sum_hessian":[1.394407E1],"tree_param":{"num_deleted":"0","num_feature":"768","num_nodes":"1","size_leaf_vector":"1"}},{"base_weights":[1.5378936E-2,-1.1039779E-1,4.6748936E-1,8.594373E-1,-6.771545E-2,3.166468E-1,-2.9916625E-2],"categories":[],"categories_nodes":[],"categories_segments":[],"categories_sizes":[],"default_left":[0,0,0,0,0,0,0],"id":22,"left_children":[1,-1,3,5,-1,-1,-1],"loss_changes":[4.686131E0,0E0,4.3203325E0,2.2031245E0,0E0,0E0,0E0],"parents":[2147483647,0,0,2,2,3,3],"right_children":[2,-1,4,6,-1,-1,-1],"split_conditions":[1.3439508E-1,-1.1039779E-1,-1.1382961E-1,-7.723063E-2,-6.771545E-2,3.166468E-1,-2.9916625E-2],"split_indices":[131,0,491,623,0,0,0],"split_type":[0,0,0,0,0,0,0],"sum_hessian":[1.7073788E1,9.742671E0,7.3311167E0,3.9172606E0,3.413856E0,2.8355222E0,1.0817385E0],"tree_param":{"num_deleted":"0","num_feature":"768","num_nodes":"7","size_leaf_vector":"1"}},{"base_weights":[-3.2539755E-1,-1.2422076E-1,6.9879025E-2],"categories":[],"categories_nodes":[],"categories_segments":[],"categories_sizes":[],"default_left":[0,0,0],"id":23,"left_children":[1,-1,-1],"loss_changes":[1.5153892E0,0E0,0E0],"parents":[2147483647,0,0],"right_children":[2,-1,-1],"split_conditions":[-4.8518932E-1,-1.2422076E-1,6.9879025E-2],"split_indices":[202,0,0],"split_type":[0,0,0],"sum_hessian":[1.5868284E1,1.4808353E1,1.0599314E0],"tree_param":{"num_deleted":"0","num_feature":"768","num_nodes":"3","size_leaf_vector":"1"}},{"base_weights":[-1.6508691E-1,1.4464848E-1,-3.4877998E-1,2.13876E-2,-1.1808655E-1],"categories":[],"categories_nodes":[],"categories_segments":[],"categories_sizes":[],"default_left":[0,0,0,0,0],"id":24,"left_children":[1,-1,3,-1,-1],"loss_changes":[3.225599E0,0E0,4.8925996E-1,0E0,0E0],"parents":[2147483647,0,0,2,2],"right_children":[2,-1,4,-1,-1],"split_conditions":[-2.0821986E-1,1.4464848E-1,-1.5967825E-1,2.13876E-2,-1.1808655E-1],"split_indices":[572,0,282,0,0],"split_type":[0,0,0,0,0],"sum_hessian":[1.505767E1,1.5327758E0,1.3524894E1,1.0200387E0,1.2504855E1],"tree_param":{"num_deleted":"0","num_feature":"768","num_nodes":"5","size_leaf_vector":"1"}},{"base_weights":[-1.039568E-1,1.9289336E-1,-1.16155416E-1],"categories":[],"categories_nodes":[],"categories_segments":[],"categories_sizes":[],"default_left":[0,0,0],"id":25,"left_children":[1,-1,-1],"loss_changes":[5.322601E0,0E0,0E0],"parents":[2147483647,0,0],"right_children":[2,-1,-1],"split_conditions":[-7.124079E-2,1.9289336E-1,-1.16155416E-1],"split_indices":[300,0,0],"split_type":[0,0,0],"sum_hessian":[1.4275786E1,2.178832E0,1.2096954E1],"tree_param":{"num_deleted":"0","num_feature":"768","num_nodes":"3","size_leaf_vector":"1"}},{"base_weights":[6.0962427E-1,7.265189E-1,-2.0351213E-1,8.488665E-1,-1.2176364E-1,1.3440921E-2,-7.832716E-2,2.7693743E-1,-4.7045294E-2,4.3131277E-2,-7.561343E-2],"categories":[],"categories_nodes":[],"categories_segments":[],"categories_sizes":[],"default_left":[0,0,0,0,0,0,0,0,0,0,0],"id":26,"left_children":[1,3,5,7,9,-1,-1,-1,-1,-1,-1],"loss_changes":[4.745573E0,4.4549656E0,1.9007641E-1,3.247221E0,4.9791867E-1,0E0,0E0,0E0,0E0,0E0,0E0],"parents":[2147483647,0,0,1,1,2,2,3,3,4,4],"right_children":[2,4,6,8,10,-1,-1,-1,-1,-1,-1],"split_conditions":[1.05412066E-1,-5.1926997E-2,7.044538E-2,-6.701228E-1,-2.3199783E-1,1.3440921E-2,-7.832716E-2,2.7693743E-1,-4.7045294E-2,4.3131277E-2,-7.561343E-2],"split_indices":[302,394,198,202,23,0,0,0,0,0,0],"split_type":[0,0,0,0,0,0,0,0,0,0,0],"sum_hessian":[3.7148773E1,3.294525E1,4.2035227E0,2.8789505E1,4.155745E0,1.0000489E0,3.2034738E0,2.7192144E1,1.5973611E0,1.1974417E0,2.9583035E0],"tree_param":{"num_deleted":"0","num_feature":"768","num_nodes":"11","size_leaf_vector":"1"}},{"base_weights":[-2.3427534E-1,-1.1990572E-1,2.9421398E-1,1.5939158E-1,-4.257106E-2],"categories":[],"categories_nodes":[],"categories_segments":[],"categories_sizes":[],"default_left":[0,0,0,0,0],"id":27,"left_children":[1,-1,3,-1,-1],"loss_changes":[2.4434776E0,0E0,1.1979396E0,0E0,0E0],"parents":[2147483647,0,0,2,2],"right_children":[2,-1,4,-1,-1],"split_conditions":[1.2169864E-1,-1.1990572E-1,-2.9520687E-2,1.5939158E-1,-4.257106E-2],"split_indices":[722,0,120,0,0],"split_type":[0,0,0,0,0],"sum_hessian":[1.622584E1,1.3286072E1,2.9397676E0,1.1974674E0,1.7423002E0],"tree_param":{"num_deleted":"0","num_feature":"768","num_nodes":"5","size_leaf_vector":"1"}},{"base_weights":[-1.8661968E-1,1.357997E-1,-3.5785082E-1,-1.2019966E-1,2.0986514E-2],"categories":[],"categories_nodes":[],"categories_segments":[],"categories_sizes":[],"default_left":[0,0,0,0,0],"id":28,"left_children":[1,-1,3,-1,-1],"loss_changes":[3.1171699E0,0E0,4.9579024E-1,0E0,0E0],"parents":[2147483647,0,0,2,2],"right_children":[2,-1,4,-1,-1],"split_conditions":[-8.11958E-1,1.357997E-1,3.1032997E-1,-1.2019966E-1,2.0986514E-2],"split_indices":[124,0,29,0,0],"split_type":[0,0,0,0,0],"sum_hessian":[1.6077276E1,1.6603705E0,1.4416905E1,1.3393674E1,1.0232314E0],"tree_param":{"num_deleted":"0","num_feature":"768","num_nodes":"5","size_leaf_vector":"1"}},{"base_weights":[-1.9148248E-1,1.1934575E-1,-3.3839825E-1,-1.1557695E-1,2.2184137E-2],"categories":[],"categories_nodes":[],"categories_segments":[],"categories_sizes":[],"default_left":[0,0,0,0,0],"id":29,"left_children":[1,-1,3,-1,-1],"loss_changes":[2.2973971E0,0E0,4.8480558E-1,0E0,0E0],"parents":[2147483647,0,0,2,2],"right_children":[2,-1,4,-1,-1],"split_conditions":[-1.3435464E-1,1.1934575E-1,-7.456637E-1,-1.1557695E-1,2.2184137E-2],"split_indices":[751,0,628,0,0],"split_type":[0,0,0,0,0],"sum_hessian":[1.3761076E1,1.0420864E0,1.2718989E1,1.1716068E1,1.0029211E0],"tree_param":{"num_deleted":"0","num_feature":"768","num_nodes":"5","size_leaf_vector":"1"}},{"base_weights":[-6.58481E-2,-1.1743638E-1,5.282207E-1,2.3016645E-1,-4.324694E-2],"categories":[],"categories_nodes":[],"categories_segments":[],"categories_sizes":[],"default_left":[0,0,0,0,0],"id":30,"left_children":[1,-1,3,-1,-1],"loss_changes":[5.21564E0,0E0,2.12499E0,0E0,0E0],"parents":[2147483647,0,0,2,2],"right_children":[2,-1,4,-1,-1],"split_conditions":[-2.2335508E-1,-1.1743638E-1,2.0318082E-1,2.3016645E-1,-4.324694E-2],"split_indices":[519,0,695,0,0],"split_type":[0,0,0,0,0],"sum_hessian":[1.6618729E1,1.1836504E1,4.7822256E0,3.0077953E0,1.7744305E0],"tree_param":{"num_deleted":"0","num_feature":"768","num_nodes":"5","size_leaf_vector":"1"}},{"base_weights":[-1.0822198E-1,-3.380846E-1,5.5230767E-1,2.2513531E-2,-1.1553778E-1,-2.7651757E-2,2.2157826E-1],"categories":[],"categories_nodes":[],"categories_segments":[],"categories_sizes":[],"default_left":[0,0,0,0,0,0,0],"id":31,"left_children":[1,3,5,-1,-1,-1,-1],"loss_changes":[3.9472623E0,4.9094152E-1,1.1835093E0,0E0,0E0,0E0,0E0],"parents":[2147483647,0,0,1,1,2,2],"right_children":[2,4,6,-1,-1,-1,-1],"split_conditions":[1.8773443E-1,-3.001158E-1,9.7329146E-1,2.2513531E-2,-1.1553778E-1,-2.7651757E-2,2.2157826E-1],"split_indices":[230,478,138,0,0,0,0],"split_type":[0,0,0,0,0,0,0],"sum_hessian":[1.484856E1,1.2825964E1,2.0225964E0,1.0068663E0,1.18190975E1,1.0199646E0,1.0026317E0],"tree_param":{"num_deleted":"0","num_feature":"768","num_nodes":"7","size_leaf_vector":"1"}},{"base_weights":[-1.6536757E-1,-1.0872993E-1,2.0157403E-1,-6.213827E-2,5.1510763E-1,2.0862086E-1,-2.8476676E-2],"categories":[],"categories_nodes":[],"categories_segments":[],"categories_sizes":[],"default_left":[0,0,0,0,0,0,0],"id":32,"left_children":[1,-1,3,-1,5,-1,-1],"loss_changes":[1.8254657E0,0E0,1.8492843E0,0E0,1.126858E0,0E0,0E0],"parents":[2147483647,0,0,2,2,4,4],"right_children":[2,-1,4,-1,6,-1,-1],"split_conditions":[1.2298204E-1,-1.0872993E-1,8.247054E-3,-6.213827E-2,9.6720286E-2,2.0862086E-1,-2.8476676E-2],"split_indices":[148,0,598,0,252,0,0],"split_type":[0,0,0,0,0,0,0],"sum_hessian":[1.519291E1,9.9244375E0,5.268473E0,3.0237706E0,2.2447023E0,1.1925101E0,1.0521922E0],"tree_param":{"num_deleted":"0","num_feature":"768","num_nodes":"7","size_leaf_vector":"1"}},{"base_weights":[-1.6195478E-1,1.3720293E-1,-1.103836E-1],"categories":[],"categories_nodes":[],"categories_segments":[],"categories_sizes":[],"default_left":[0,0,0],"id":33,"left_children":[1,-1,-1],"loss_changes":[3.0191898E0,0E0,0E0],"parents":[2147483647,0,0],"right_children":[2,-1,-1],"split_conditions":[-8.351411E-1,1.3720293E-1,-1.103836E-1],"split_indices":[346,0,0],"split_type":[0,0,0],"sum_hessian":[1.2071508E1,1.490211E0,1.0581298E1],"tree_param":{"num_deleted":"0","num_feature":"768","num_nodes":"3","size_leaf_vector":"1"}},{"base_weights":[4.4115785E-1,5.8618075E-1,-2.9939103E-1,6.8744445E-1,-3.147237E-2,-1.04740866E-1,8.146589E-3,-1.2125766E-2,2.287409E-1,-8.3524056E-2,8.403253E-2],"categories":[],"categories_nodes":[],"categories_segments":[],"categories_sizes":[],"default_left":[0,0,0,0,0,0,0,0,0,0,0],"id":34,"left_children":[1,3,5,7,9,-1,-1,-1,-1,-1,-1],"loss_changes":[5.58002E0,2.5040865E0,2.1764576E-1,1.9632406E0,1.1729546E0,0E0,0E0,0E0,0E0,0E0,0E0],"parents":[2147483647,0,0,1,1,2,2,3,3,4,4],"right_children":[2,4,6,8,10,-1,-1,-1,-1,-1,-1],"split_conditions":[9.658924E-2,4.5616764E-1,4.1751806E-2,-1.7716485E-1,6.876658E-3,-1.04740866E-1,8.146589E-3,-1.2125766E-2,2.287409E-1,-8.3524056E-2,8.403253E-2],"split_indices":[613,294,383,93,100,0,0,0,0,0,0],"split_type":[0,0,0,0,0,0,0,0,0,0,0],"sum_hessian":[3.878664E1,3.3306442E1,5.4801993E0,2.8129639E1,5.1768026E0,4.4555607E0,1.0246384E0,2.8440588E0,2.5285582E1,3.184886E0,1.9919167E0],"tree_param":{"num_deleted":"0","num_feature":"768","num_nodes":"11","size_leaf_vector":"1"}},{"base_weights":[-2.2568382E-1,1.0737939E-1,-1.1400778E-1],"categories":[],"categories_nodes":[],"categories_segments":[],"categories_sizes":[],"default_left":[0,0,0],"id":35,"left_children":[1,-1,-1],"loss_changes":[2.2793984E0,0E0,0E0],"parents":[2147483647,0,0],"right_children":[2,-1,-1],"split_conditions":[-1.2650062E-1,1.0737939E-1,-1.1400778E-1],"split_indices":[613,0,0],"split_type":[0,0,0],"sum_hessian":[1.2754741E1,1.2882147E0,1.1466526E1],"tree_param":{"num_deleted":"0","num_feature":"768","num_nodes":"3","size_leaf_vector":"1"}},{"base_weights":[-2.1206233E-1,-1.17339976E-1,3.6545253E-1,-2.9985212E-2,1.5885235E-1],"categories":[],"categories_nodes":[],"categories_segments":[],"categories_sizes":[],"default_left":[0,0,0,0,0],"id":36,"left_children":[1,-1,3,-1,-1],"loss_changes":[2.7663314E0,0E0,8.2048845E-1,0E0,0E0],"parents":[2147483647,0,0,2,2],"right_children":[2,-1,4,-1,-1],"split_conditions":[2.4464308E-1,-1.17339976E-1,-1.0020522E-2,-2.9985212E-2,1.5885235E-1],"split_indices":[97,0,231,0,0],"split_type":[0,0,0,0,0],"sum_hessian":[1.4838574E1,1.2558266E1,2.2803082E0,1.1035191E0,1.1767893E0],"tree_param":{"num_deleted":"0","num_feature":"768","num_nodes":"5","size_leaf_vector":"1"}},{"base_weights":[-2.8069243E-1,-1.14576206E-1,7.1305454E-2],"categories":[],"categories_nodes":[],"categories_segments":[],"categories_sizes":[],"default_left":[0,0,0],"id":37,"left_children":[1,-1,-1],"loss_changes":[1.391182E0,0E0,0E0],"parents":[2147483647,0,0],"right_children":[2,-1,-1],"split_conditions":[3.4994754E-1,-1.14576206E-1,7.1305454E-2],"split_indices":[541,0,0],"split_type":[0,0,0],"sum_hessian":[1.2862004E1,1.1861828E1,1.0001765E0],"tree_param":{"num_deleted":"0","num_feature":"768","num_nodes":"3","size_leaf_vector":"1"}},{"base_weights":[8.930267E-2,-2.4409649E-1,5.334622E-1,4.7344692E-2,-1.0446098E-1,-4.591738E-2,2.3109163E-1],"categories":[],"categories_nodes":[],"categories_segments":[],"categories_sizes":[],"default_left":[0,0,0,0,0,0,0],"id":38,"left_children":[1,3,5,-1,-1,-1,-1],"loss_changes":[3.7171187E0,9.1316044E-1,2.2882342E0,0E0,0E0,0E0,0E0],"parents":[2147483647,0,0,1,1,2,2],"right_children":[2,4,6,-1,-1,-1,-1],"split_conditions":[7.537011E-2,-7.07047E-2,2.368021E-3,4.7344692E-2,-1.0446098E-1,-4.591738E-2,2.3109163E-1],"split_indices":[302,330,239,0,0,0,0],"split_type":[0,0,0,0,0,0,0],"sum_hessian":[1.5704937E1,1.0257506E1,5.4474306E0,1.5796473E0,8.677859E0,1.8509648E0,3.596466E0],"tree_param":{"num_deleted":"0","num_feature":"768","num_nodes":"7","size_leaf_vector":"1"}},{"base_weights":[-2.9454172E-2,5.1530856E-1,-3.064141E-1,2.3048984E-1,-3.959963E-2,-1.0758759E-1,2.2551347E-2],"categories":[],"categories_nodes":[],"categories_segments":[],"categories_sizes":[],"default_left":[0,0,0,0,0,0,0],"id":39,"left_children":[1,3,5,-1,-1,-1,-1],"loss_changes":[3.609073E0,1.843899E0,4.4409084E-1,0E0,0E0,0E0,0E0],"parents":[2147483647,0,0,1,1,2,2],"right_children":[2,4,6,-1,-1,-1,-1],"split_conditions":[-3.4113306E-1,-7.086083E-1,9.3483746E-1,2.3048984E-1,-3.959963E-2,-1.0758759E-1,2.2551347E-2],"split_indices":[381,47,275,0,0,0,0],"split_type":[0,0,0,0,0,0,0],"sum_hessian":[1.3687909E1,3.163183E0,1.0524726E1,1.6023479E0,1.5608351E0,9.522623E0,1.0021032E0],"tree_param":{"num_deleted":"0","num_feature":"768","num_nodes":"7","size_leaf_vector":"1"}},{"base_weights":[7.635043E-2,5.384175E-1,-2.2671708E-1,-3.97896E-2,2.3279734E-1,-1.0371191E-1,6.995617E-2],"categories":[],"categories_nodes":[],"categories_segments":[],"categories_sizes":[],"default_left":[0,0,0,0,0,0,0],"id":40,"left_children":[1,3,5,-1,-1,-1,-1],"loss_changes":[3.229922E0,1.9320495E0,1.2138147E0,0E0,0E0,0E0,0E0],"parents":[2147483647,0,0,1,1,2,2],"right_children":[2,4,6,-1,-1,-1,-1],"split_conditions":[-9.402312E-1,1.20487556E-1,-7.7377546E-1,-3.97896E-2,2.3279734E-1,-1.0371191E-1,6.995617E-2],"split_indices":[160,131,123,0,0,0,0],"split_type":[0,0,0,0,0,0,0],"sum_hessian":[1.370627E1,3.8910475E0,9.815223E0,1.5948505E0,2.2961972E0,8.78409E0,1.0311329E0],"tree_param":{"num_deleted":"0","num_feature":"768","num_nodes":"7","size_leaf_vector":"1"}},{"base_weights":[-1.693357E-1,1.2135517E-1,-1.095155E-1],"categories":[],"categories_nodes":[],"categories_segments":[],"categories_sizes":[],"default_left":[0,0,0],"id":41,"left_children":[1,-1,-1],"loss_changes":[2.6826608E0,0E0,0E0],"parents":[2147483647,0,0],"right_children":[2,-1,-1],"split_conditions":[-1.0149555E-1,1.2135517E-1,-1.095155E-1],"split_indices":[301,0,0],"split_type":[0,0,0],"sum_hessian":[1.2311677E1,1.7744815E0,1.0537195E1],"tree_param":{"num_deleted":"0","num_feature":"768","num_nodes":"3","size_leaf_vector":"1"}},{"base_weights":[3.4873733E-1,4.6921426E-1,-1.672534E-1,-6.3227035E-2,5.304351E-1,7.922085E-2,-1.18479125E-1,1.796306E-1,-3.7515126E-2],"categories":[],"categories_nodes":[],"categories_segments":[],"categories_sizes":[],"default_left":[0,0,0,0,0,0,0,0,0],"id":42,"left_children":[1,3,5,-1,7,-1,-1,-1,-1],"loss_changes":[3.3224187E0,2.2043343E0,1.759571E0,0E0,2.062232E0,0E0,0E0,0E0,0E0],"parents":[2147483647,0,0,1,1,2,2,4,4],"right_children":[2,4,6,-1,8,-1,-1,-1,-1],"split_conditions":[-8.253986E-1,-9.2586297E-1,1.0614622E-2,-6.3227035E-2,-9.110707E-1,7.922085E-2,-1.18479125E-1,1.796306E-1,-3.7515126E-2],"split_indices":[765,553,40,0,732,0,0,0,0],"split_type":[0,0,0,0,0,0,0,0,0],"sum_hessian":[4.2133133E1,3.4525223E1,7.6079097E0,1.8429542E0,3.268227E1,2.3523276E0,5.255582E0,2.9988625E1,2.6936443E0],"tree_param":{"num_deleted":"0","num_feature":"768","num_nodes":"9","size_leaf_vector":"1"}},{"base_weights":[1.3110288E-2,1.7185563E-1,-2.379118E-1,-1.0613624E-1,7.146572E-2],"categories":[],"categories_nodes":[],"categories_segments":[],"categories_sizes":[],"default_left":[0,0,0,0,0],"id":43,"left_children":[1,-1,3,-1,-1],"loss_changes":[3.1142266E0,0E0,1.2758074E0,0E0,0E0],"parents":[2147483647,0,0,2,2],"right_children":[2,-1,4,-1,-1],"split_conditions":[9.5180786E-1,1.7185563E-1,-9.8758143E-1,-1.0613624E-1,7.146572E-2],"split_indices":[350,0,207,0,0],"split_type":[0,0,0,0,0],"sum_hessian":[1.2314268E1,1.82791E0,1.0486358E1,9.467118E0,1.0192394E0],"tree_param":{"num_deleted":"0","num_feature":"768","num_nodes":"5","size_leaf_vector":"1"}},{"base_weights":[-2.7030426E-1,-1.1179928E-1,6.6602744E-2],"categories":[],"categories_nodes":[],"categories_segments":[],"categories_sizes":[],"default_left":[0,0,0],"id":44,"left_children":[1,-1,-1],"loss_changes":[1.2761804E0,0E0,0E0],"parents":[2147483647,0,0],"right_children":[2,-1,-1],"split_conditions":[1.4672984E-1,-1.1179928E-1,6.6602744E-2],"split_indices":[710,0,0],"split_type":[0,0,0],"sum_hessian":[1.2115533E1,1.1036117E1,1.0794159E0],"tree_param":{"num_deleted":"0","num_feature":"768","num_nodes":"3","size_leaf_vector":"1"}},{"base_weights":[-1.6860154E-1,-1.0998749E-1,3.6861295E-1,1.6618326E-1,-3.2245513E-2],"categories":[],"categories_nodes":[],"categories_segments":[],"categories_sizes":[],"default_left":[0,0,0,0,0],"id":45,"left_children":[1,-1,3,-1,-1],"loss_changes":[2.5748808E0,0E0,9.419573E-1,0E0,0E0],"parents":[2147483647,0,0,2,2],"right_children":[2,-1,4,-1,-1],"split_conditions":[9.188813E-2,-1.0998749E-1,4.7663633E-2,1.6618326E-1,-3.2245513E-2],"split_indices":[736,0,33,0,0],"split_type":[0,0,0,0,0],"sum_hessian":[1.2852497E1,1.0551001E1,2.3014967E0,1.0681522E0,1.2333447E0],"tree_param":{"num_deleted":"0","num_feature":"768","num_nodes":"5","size_leaf_vector":"1"}},{"base_weights":[8.5298583E-4,-2.6893455E-1,4.9830553E-1,6.67656E-2,-1.1214601E-1,2.0191051E-1,-3.32723E-2],"categories":[],"categories_nodes":[],"categories_segments":[],"categories_sizes":[],"default_left":[0,0,0,0,0,0,0],"id":46,"left_children":[1,3,5,-1,-1,-1,-1],"loss_changes":[3.4035478E0,1.2641301E0,1.3221624E0,0E0,0E0,0E0,0E0],"parents":[2147483647,0,0,1,1,2,2],"right_children":[2,4,6,-1,-1,-1,-1],"split_conditions":[-1.9854589E-1,-7.696265E-2,2.69012E-1,6.67656E-2,-1.1214601E-1,2.0191051E-1,-3.32723E-2],"split_indices":[519,558,66,0,0,0,0],"split_type":[0,0,0,0,0,0,0],"sum_hessian":[1.5367793E1,1.1453178E1,3.9146142E0,1.027781E0,1.0425397E1,2.6350467E0,1.2795676E0],"tree_param":{"num_deleted":"0","num_feature":"768","num_nodes":"7","size_leaf_vector":"1"}},{"base_weights":[-1.5255624E-2,5.1697093E-1,-2.9600853E-1,2.1683064E-1,-3.4303453E-2,2.234892E-2,-1.0460437E-1],"categories":[],"categories_nodes":[],"categories_segments":[],"categories_sizes":[],"default_left":[0,0,0,0,0,0,0],"id":47,"left_children":[1,3,5,-1,-1,-1,-1],"loss_changes":[3.4882085E0,1.4674067E0,4.2475402E-1,0E0,0E0,0E0,0E0],"parents":[2147483647,0,0,1,1,2,2],"right_children":[2,4,6,-1,-1,-1,-1],"split_conditions":[8.261828E-1,1.6841803E-1,-8.8895154E-1,2.1683064E-1,-3.4303453E-2,2.234892E-2,-1.0460437E-1],"split_indices":[180,374,559,0,0,0,0],"split_type":[0,0,0,0,0,0,0],"sum_hessian":[1.3223757E1,3.1138766E0,1.010988E1,1.8021144E0,1.3117621E0,1.0005162E0,9.1093645E0],"tree_param":{"num_deleted":"0","num_feature":"768","num_nodes":"7","size_leaf_vector":"1"}},{"base_weights":[-2.2423874E-1,1.10235184E-1,-1.1314153E-1],"categories":[],"categories_nodes":[],"categories_segments":[],"categories_sizes":[],"default_left":[0,0,0],"id":48,"left_children":[1,-1,-1],"loss_changes":[2.2908556E0,0E0,0E0],"parents":[2147483647,0,0],"right_children":[2,-1,-1],"split_conditions":[-9.693195E-1,1.10235184E-1,-1.1314153E-1],"split_indices":[160,0,0],"split_type":[0,0,0],"sum_hessian":[1.2663013E1,1.1595871E0,1.1503426E1],"tree_param":{"num_deleted":"0","num_feature":"768","num_nodes":"3","size_leaf_vector":"1"}},{"base_weights":[-1.0895408E-1,1.3676096E-1,-1.05466485E-1],"categories":[],"categories_nodes":[],"categories_segments":[],"categories_sizes":[],"default_left":[0,0,0],"id":49,"left_children":[1,-1,-1],"loss_changes":[3.119548E0,0E0,0E0],"parents":[2147483647,0,0],"right_children":[2,-1,-1],"split_conditions":[-8.351411E-1,1.3676096E-1,-1.05466485E-1],"split_indices":[346,0,0],"split_type":[0,0,0],"sum_hessian":[1.1918092E1,2.2602654E0,9.657826E0],"tree_param":{"num_deleted":"0","num_feature":"768","num_nodes":"3","size_leaf_vector":"1"}},{"base_weights":[3.4724748E-1,5.317747E-1,-3.756341E-2,-5.163233E-2,6.042575E-1,-3.706223E-1,2.8099442E-1,1.9779675E-1,-3.503081E-2,-5.0643245E-3,-1.1924635E-1,-4.4975273E-2,1.2223654E-1],"categories":[],"categories_nodes":[],"categories_segments":[],"categories_sizes":[],"default_left":[0,0,0,0,0,0,0,0,0,0,0,0,0],"id":50,"left_children":[1,3,5,-1,7,9,11,-1,-1,-1,-1,-1,-1],"loss_changes":[3.067894E0,1.9781733E0,2.4535418E0,0E0,1.4577684E0,7.157767E-2,9.67803E-1,0E0,0E0,0E0,0E0,0E0,0E0],"parents":[2147483647,0,0,1,1,2,2,4,4,5,5,6,6],"right_children":[2,4,6,-1,8,10,12,-1,-1,-1,-1,-1,-1],"split_conditions":[6.904456E-2,-1.112463E-1,-9.535551E-1,-5.163233E-2,9.830223E-1,-6.201366E-2,-2.626791E-1,1.9779675E-1,-3.503081E-2,-5.0643245E-3,-1.1924635E-1,-4.4975273E-2,1.2223654E-1],"split_indices":[428,282,342,0,162,57,566,0,0,0,0,0,0],"split_type":[0,0,0,0,0,0,0,0,0,0,0,0,0],"sum_hessian":[3.6798313E1,2.3581018E1,1.3217294E1,1.5599546E0,2.2021065E1,6.062076E0,7.155218E0,2.0856169E1,1.1648964E0,1.0025938E0,5.059482E0,1.4130036E0,5.7422147E0],"tree_param":{"num_deleted":"0","num_feature":"768","num_nodes":"13","size_leaf_vector":"1"}},{"base_weights":[-7.134424E-2,-2.8239605E-1,1.2771264E-1,2.3157528E-2,-1.0139848E-1],"categories":[],"categories_nodes":[],"categories_segments":[],"categories_sizes":[],"default_left":[0,0,0,0,0],"id":51,"left_children":[1,3,-1,-1,-1],"loss_changes":[2.3092384E0,4.1906166E-1,0E0,0E0,0E0],"parents":[2147483647,0,0,1,1],"right_children":[2,4,-1,-1,-1],"split_conditions":[-6.6410583E-1,2.2123648E-1,1.2771264E-1,2.3157528E-2,-1.0139848E-1],"split_indices":[457,473,0,0,0],"split_type":[0,0,0,0,0],"sum_hessian":[1.1282957E1,9.435768E0,1.8471892E0,1.0035338E0,8.432235E0],"tree_param":{"num_deleted":"0","num_feature":"768","num_nodes":"5","size_leaf_vector":"1"}},{"base_weights":[-3.067385E-1,2.265777E-2,-1.0730103E-1],"categories":[],"categories_nodes":[],"categories_segments":[],"categories_sizes":[],"default_left":[0,0,0],"id":52,"left_children":[1,-1,-1],"loss_changes":[4.453597E-1,0E0,0E0],"parents":[2147483647,0,0],"right_children":[2,-1,-1],"split_conditions":[-1.7114215E-1,2.265777E-2,-1.0730103E-1],"split_indices":[1,0,0],"split_type":[0,0,0],"sum_hessian":[1.093753E1,1.002073E0,9.935457E0],"tree_param":{"num_deleted":"0","num_feature":"768","num_nodes":"3","size_leaf_vector":"1"}},{"base_weights":[-2.409505E-1,7.030642E-2,-1.0605233E-1],"categories":[],"categories_nodes":[],"categories_segments":[],"categories_sizes":[],"default_left":[0,0,0],"id":53,"left_children":[1,-1,-1],"loss_changes":[1.2516961E0,0E0,0E0],"parents":[2147483647,0,0],"right_children":[2,-1,-1],"split_conditions":[-3.4704518E-1,7.030642E-2,-1.0605233E-1],"split_indices":[622,0,0],"split_type":[0,0,0],"sum_hessian":[1.0653826E1,1.003939E0,9.649886E0],"tree_param":{"num_deleted":"0","num_feature":"768","num_nodes":"3","size_leaf_vector":"1"}},{"base_weights":[1.4181373E-1,4.218839E-1,-8.696608E-2,-5.38763E-2,6.2402886E-1,-3.637165E-2,2.3390219E-1],"categories":[],"categories_nodes":[],"categories_segments":[],"categories_sizes":[],"default_left":[0,0,0,0,0,0,0],"id":54,"left_children":[1,3,-1,-1,5,-1,-1],"loss_changes":[3.0399482E0,2.2890885E0,0E0,0E0,1.8366785E0,0E0,0E0],"parents":[2147483647,0,0,1,1,4,4],"right_children":[2,4,-1,-1,6,-1,-1],"split_conditions":[7.174099E-3,-8.60334E-1,-8.696608E-2,-5.38763E-2,-3.33521E-1,-3.637165E-2,2.3390219E-1],"split_indices":[133,339,0,0,743,0,0],"split_type":[0,0,0,0,0,0,0],"sum_hessian":[1.5085401E1,9.218502E0,5.866898E0,2.4592085E0,6.7592936E0,1.3587128E0,5.400581E0],"tree_param":{"num_deleted":"0","num_feature":"768","num_nodes":"7","size_leaf_vector":"1"}},{"base_weights":[-6.020202E-2,4.365456E-1,-1.04230635E-1,1.9380385E-1,-3.8177103E-2],"categories":[],"categories_nodes":[],"categories_segments":[],"categories_sizes":[],"default_left":[0,0,0,0,0],"id":55,"left_children":[1,3,-1,-1,-1],"loss_changes":[3.2863944E0,1.4393643E0,0E0,0E0,0E0],"parents":[2147483647,0,0,1,1],"right_children":[2,4,-1,-1,-1],"split_conditions":[-1.9325756E-1,8.261828E-1,-1.04230635E-1,1.9380385E-1,-3.8177103E-2],"split_indices":[513,180,0,0,0],"split_type":[0,0,0,0,0],"sum_hessian":[1.2717918E1,3.707297E0,9.010622E0,2.1714706E0,1.5358264E0],"tree_param":{"num_deleted":"0","num_feature":"768","num_nodes":"5","size_leaf_vector":"1"}},{"base_weights":[3.2107845E-2,-9.510692E-2,3.9976257E-1,-6.0013026E-2,7.361374E-1,2.546051E-1,9.733731E-3],"categories":[],"categories_nodes":[],"categories_segments":[],"categories_sizes":[],"default_left":[0,0,0,0,0,0,0],"id":56,"left_children":[1,-1,3,-1,5,-1,-1],"loss_changes":[2.9992576E0,0E0,2.9935794E0,0E0,5.146303E-1,0E0,0E0],"parents":[2147483647,0,0,2,2,4,4],"right_children":[2,-1,4,-1,6,-1,-1],"split_conditions":[-1.2809955E-1,-9.510692E-2,1.3993231E-2,-6.0013026E-2,5.0045054E-2,2.546051E-1,9.733731E-3],"split_indices":[157,0,710,0,393,0,0],"split_type":[0,0,0,0,0,0,0],"sum_hessian":[1.3429375E1,7.2414E0,6.187975E0,2.9514985E0,3.2364764E0,1.9020448E0,1.3344316E0],"tree_param":{"num_deleted":"0","num_feature":"768","num_nodes":"7","size_leaf_vector":"1"}},{"base_weights":[-4.888452E-2,1.3655478E-1,-9.6110016E-2],"categories":[],"categories_nodes":[],"categories_segments":[],"categories_sizes":[],"default_left":[0,0,0],"id":57,"left_children":[1,-1,-1],"loss_changes":[2.7625139E0,0E0,0E0],"parents":[2147483647,0,0],"right_children":[2,-1,-1],"split_conditions":[-8.3352166E-1,1.3655478E-1,-9.6110016E-2],"split_indices":[346,0,0],"split_type":[0,0,0],"sum_hessian":[9.859026E0,2.2668428E0,7.5921836E0],"tree_param":{"num_deleted":"0","num_feature":"768","num_nodes":"3","size_leaf_vector":"1"}},{"base_weights":[2.177197E-1,3.7361065E-1,-2.7612087E-1,-1.6049668E-1,4.515897E-1,-3.832986E-1,4.330989E-2,8.375481E-3,-6.2437374E-2,-3.3932727E-2,1.6342235E-1,-1.2094915E-1,-8.825587E-3],"categories":[],"categories_nodes":[],"categories_segments":[],"categories_sizes":[],"default_left":[0,0,0,0,0,0,0,0,0,0,0,0,0],"id":58,"left_children":[1,3,5,7,9,11,-1,-1,-1,-1,-1,-1,-1],"loss_changes":[3.734292E0,1.7743297E0,8.5830104E-1,1.0091327E-1,1.9331164E0,2.2612572E-2,0E0,0E0,0E0,0E0,0E0,0E0,0E0],"parents":[2147483647,0,0,1,1,2,2,3,3,4,4,5,5],"right_children":[2,4,6,8,10,12,-1,-1,-1,-1,-1,-1,-1],"split_conditions":[7.709241E-2,-2.626791E-1,-4.7734544E-2,-8.566336E-1,-1.0668321E-1,-4.7134987E-1,4.330989E-2,8.375481E-3,-6.2437374E-2,-3.3932727E-2,1.6342235E-1,-1.2094915E-1,-8.825587E-3],"split_indices":[302,566,93,0,311,537,0,0,0,0,0,0,0],"split_type":[0,0,0,0,0,0,0,0,0,0,0,0,0],"sum_hessian":[3.6806484E1,2.8900682E1,7.9058013E0,3.0078435E0,2.589284E1,6.6523867E0,1.2534145E0,1.0244135E0,1.9834301E0,3.5147312E0,2.2378107E1,5.6394763E0,1.0129104E0],"tree_param":{"num_deleted":"0","num_feature":"768","num_nodes":"13","size_leaf_vector":"1"}},{"base_weights":[-1.8923922E-1,-1.0635395E-1,1.0260921E-1],"categories":[],"categories_nodes":[],"categories_segments":[],"categories_sizes":[],"default_left":[0,0,0],"id":59,"left_children":[1,-1,-1],"loss_changes":[2.0279782E0,0E0,0E0],"parents":[2147483647,0,0],"right_children":[2,-1,-1],"split_conditions":[1.6010343E-1,-1.0635395E-1,1.0260921E-1],"split_indices":[283,0,0],"split_type":[0,0,0],"sum_hessian":[1.119162E1,9.804917E0,1.386703E0],"tree_param":{"num_deleted":"0","num_feature":"768","num_nodes":"3","size_leaf_vector":"1"}},{"base_weights":[-1.889039E-1,-1.0389163E-1,8.075522E-2],"categories":[],"categories_nodes":[],"categories_segments":[],"categories_sizes":[],"default_left":[0,0,0],"id":60,"left_children":[1,-1,-1],"loss_changes":[1.6280811E0,0E0,0E0],"parents":[2147483647,0,0],"right_children":[2,-1,-1],"split_conditions":[1.299951E-1,-1.0389163E-1,8.075522E-2],"split_indices":[302,0,0],"split_type":[0,0,0],"sum_hessian":[1.1115414E1,9.180903E0,1.9345104E0],"tree_param":{"num_deleted":"0","num_feature":"768","num_nodes":"3","size_leaf_vector":"1"}},{"base_weights":[-1.641622E-1,8.679871E-2,-1.0020928E-1],"categories":[],"categories_nodes":[],"categories_segments":[],"categories_sizes":[],"default_left":[0,0,0],"id":61,"left_children":[1,-1,-1],"loss_changes":[1.655313E0,0E0,0E0],"parents":[2147483647,0,0],"right_children":[2,-1,-1],"split_conditions":[7.2966164E-1,8.679871E-2,-1.0020928E-1],"split_indices":[654,0,0],"split_type":[0,0,0],"sum_hessian":[1.02152195E1,1.8255019E0,8.389717E0],"tree_param":{"num_deleted":"0","num_feature":"768","num_nodes":"3","size_leaf_vector":"1"}},{"base_weights":[-1.2210388E-1,-1.0206521E-1,2.8542942E-1,1.3870002E-1,-3.8306456E-2],"categories":[],"categories_nodes":[],"categories_segments":[],"categories_sizes":[],"default_left":[0,0,0,0,0],"id":62,"left_children":[1,-1,3,-1,-1],"loss_changes":[2.0098853E0,0E0,9.3079793E-1,0E0,0E0],"parents":[2147483647,0,0,2,2],"right_children":[2,-1,4,-1,-1],"split_conditions":[1.21531524E-1,-1.0206521E-1,1.8575812E-2,1.3870002E-1,-3.8306456E-2],"split_indices":[325,0,292,0,0],"split_type":[0,0,0,0,0],"sum_hessian":[1.2148958E1,8.45155E0,3.6974082E0,2.1717603E0,1.5256479E0],"tree_param":{"num_deleted":"0","num_feature":"768","num_nodes":"5","size_leaf_vector":"1"}},{"base_weights":[-8.090571E-2,3.54285E-1,-9.9180184E-2,-4.3390196E-2,1.7948589E-1],"categories":[],"categories_nodes":[],"categories_segments":[],"categories_sizes":[],"default_left":[0,0,0,0,0],"id":63,"left_children":[1,3,-1,-1,-1],"loss_changes":[2.3712506E0,1.4557909E0,0E0,0E0,0E0],"parents":[2147483647,0,0,1,1],"right_children":[2,4,-1,-1,-1],"split_conditions":[5.634258E-2,-3.4716886E-2,-9.9180184E-2,-4.3390196E-2,1.7948589E-1],"split_indices":[356,213,0,0,0],"split_type":[0,0,0,0,0],"sum_hessian":[1.14323225E1,3.404425E0,8.027898E0,1.7868948E0,1.6175301E0],"tree_param":{"num_deleted":"0","num_feature":"768","num_nodes":"5","size_leaf_vector":"1"}},{"base_weights":[-1.650292E-2,3.4695312E-1,-8.7509945E-2,-3.9346024E-2,1.6743954E-1],"categories":[],"categories_nodes":[],"categories_segments":[],"categories_sizes":[],"default_left":[0,0,0,0,0],"id":64,"left_children":[1,3,-1,-1,-1],"loss_changes":[1.9531101E0,1.2260152E0,0E0,0E0,0E0],"parents":[2147483647,0,0,1,1],"right_children":[2,4,-1,-1,-1],"split_conditions":[1.622952E-2,2.839575E-1,-8.7509945E-2,-3.9346024E-2,1.6743954E-1],"split_indices":[477,690,0,0,0],"split_type":[0,0,0,0,0],"sum_hessian":[9.467614E0,3.5178366E0,5.9497776E0,1.6582657E0,1.8595707E0],"tree_param":{"num_deleted":"0","num_feature":"768","num_nodes":"5","size_leaf_vector":"1"}},{"base_weights":[9.395243E-3,-9.4511814E-2,1.4100139E-1],"categories":[],"categories_nodes":[],"categories_segments":[],"categories_sizes":[],"default_left":[0,0,0],"id":65,"left_children":[1,-1,-1],"loss_changes":[3.106565E0,0E0,0E0],"parents":[2147483647,0,0],"right_children":[2,-1,-1],"split_conditions":[9.874231E-1,-9.4511814E-2,1.4100139E-1],"split_indices":[587,0,0],"split_type":[0,0,0],"sum_hessian":[1.0834135E1,7.2838645E0,3.5502703E0],"tree_param":{"num_deleted":"0","num_feature":"768","num_nodes":"3","size_leaf_vector":"1"}},{"base_weights":[1.3240732E-1,-1.9234082E-1,3.5426748E-1,2.1917523E-1,-4.0133107E-1,4.6488172E-1,-1.0920069E-1,9.700529E-2,-3.310602E-2,4.7753774E-2,-1.528105E-1,1.6186765E-1,-3.0833604E-2,-7.357884E-2,4.3338664E-2],"categories":[],"categories_nodes":[],"categories_segments":[],"categories_sizes":[],"default_left":[0,0,0,0,0,0,0,0,0,0,0,0,0,0,0],"id":66,"left_children":[1,3,5,7,9,11,13,-1,-1,-1,-1,-1,-1,-1,-1],"loss_changes":[3.452529E0,2.2261775E0,1.6595261E0,5.2958894E-1,1.3465247E0,1.2559829E0,4.9924406E-1,0E0,0E0,0E0,0E0,0E0,0E0,0E0,0E0],"parents":[2147483647,0,0,1,1,2,2,3,3,4,4,5,5,6,6],"right_children":[2,4,6,8,10,12,14,-1,-1,-1,-1,-1,-1,-1,-1],"split_conditions":[9.756636E-1,-7.929729E-2,1.22648194E-1,-7.850991E-1,9.377561E-1,7.629337E-2,9.055749E-1,9.700529E-2,-3.310602E-2,4.7753774E-2,-1.528105E-1,1.6186765E-1,-3.0833604E-2,-7.357884E-2,4.3338664E-2],"split_indices":[210,677,402,434,173,178,46,0,0,0,0,0,0,0,0],"split_type":[0,0,0,0,0,0,0,0,0,0,0,0,0,0,0],"sum_hessian":[3.8190647E1,1.5771036E1,2.241961E1,5.2297096E0,1.05413265E1,1.8087486E1,4.3321233E0,4.044754E0,1.1849558E0,1.3209924E0,9.220335E0,1.620341E1,1.8840775E0,2.9274478E0,1.4046756E0],"tree_param":{"num_deleted":"0","num_feature":"768","num_nodes":"15","size_leaf_vector":"1"}},{"base_weights":[-3.351627E-2,-9.464782E-2,4.292808E-1,1.838538E-1,-3.1942975E-2],"categories":[],"categories_nodes":[],"categories_segments":[],"categories_sizes":[],"default_left":[0,0,0,0,0],"id":67,"left_children":[1,-1,3,-1,-1],"loss_changes":[2.6471586E0,0E0,1.0966616E0,0E0,0E0],"parents":[2147483647,0,0,2,2],"right_children":[2,-1,4,-1,-1],"split_conditions":[-4.413207E-2,-9.464782E-2,2.1775475E-1,1.838538E-1,-3.1942975E-2],"split_indices":[140,0,439,0,0],"split_type":[0,0,0,0,0],"sum_hessian":[1.0095905E1,7.262445E0,2.8334603E0,1.5745425E0,1.2589177E0],"tree_param":{"num_deleted":"0","num_feature":"768","num_nodes":"5","size_leaf_vector":"1"}},{"base_weights":[3.4822203E-2,4.3096775E-1,-8.764772E-2,-3.5281807E-2,1.8491858E-1],"categories":[],"categories_nodes":[],"categories_segments":[],"categories_sizes":[],"default_left":[0,0,0,0,0],"id":68,"left_children":[1,3,-1,-1,-1],"loss_changes":[2.5517273E0,1.2504921E0,0E0,0E0,0E0],"parents":[2147483647,0,0,1,1],"right_children":[2,4,-1,-1,-1],"split_conditions":[-6.5991454E-2,2.9799972E-2,-8.764772E-2,-3.5281807E-2,1.8491858E-1],"split_indices":[2,736,0,0,0],"split_type":[0,0,0,0,0],"sum_hessian":[9.839339E0,3.7301161E0,6.109223E0,1.4043212E0,2.325795E0],"tree_param":{"num_deleted":"0","num_feature":"768","num_nodes":"5","size_leaf_vector":"1"}},{"base_weights":[-1.6410619E-1,8.254622E-2,-9.9214785E-2],"categories":[],"categories_nodes":[],"categories_segments":[],"categories_sizes":[],"default_left":[0,0,0],"id":69,"left_children":[1,-1,-1],"loss_changes":[1.5626163E0,0E0,0E0],"parents":[2147483647,0,0],"right_children":[2,-1,-1],"split_conditions":[-3.3922893E-1,8.254622E-2,-9.9214785E-2],"split_indices":[333,0,0],"split_type":[0,0,0],"sum_hessian":[1.0134612E1,1.8911705E0,8.243442E0],"tree_param":{"num_deleted":"0","num_feature":"768","num_nodes":"3","size_leaf_vector":"1"}},{"base_weights":[6.451495E-2,1.491212E-1,-1.7849354E-1,6.514819E-2,-9.899777E-2],"categories":[],"categories_nodes":[],"categories_segments":[],"categories_sizes":[],"default_left":[0,0,0,0,0],"id":70,"left_children":[1,-1,3,-1,-1],"loss_changes":[2.2955682E0,0E0,1.2550129E0,0E0,0E0],"parents":[2147483647,0,0,2,2],"right_children":[2,-1,4,-1,-1],"split_conditions":[-3.0268264E-1,1.491212E-1,-7.058253E-2,6.514819E-2,-9.899777E-2],"split_indices":[617,0,330,0,0],"split_type":[0,0,0,0,0],"sum_hessian":[1.2618358E1,2.6586037E0,9.959754E0,2.1576867E0,7.8020678E0],"tree_param":{"num_deleted":"0","num_feature":"768","num_nodes":"5","size_leaf_vector":"1"}},{"base_weights":[-2.3005549E-2,3.7168875E-1,-9.389659E-2,-4.2339914E-2,1.7478074E-1],"categories":[],"categories_nodes":[],"categories_segments":[],"categories_sizes":[],"default_left":[0,0,0,0,0],"id":71,"left_children":[1,3,-1,-1,-1],"loss_changes":[2.4374814E0,1.4011185E0,0E0,0E0,0E0],"parents":[2147483647,0,0,1,1],"right_children":[2,4,-1,-1,-1],"split_conditions":[8.25638E-1,1.3088562E-1,-9.389659E-2,-4.2339914E-2,1.7478074E-1],"split_indices":[470,592,0,0,0],"split_type":[0,0,0,0,0],"sum_hessian":[1.1214367E1,4.1529746E0,7.0613923E0,1.6923621E0,2.4606128E0],"tree_param":{"num_deleted":"0","num_feature":"768","num_nodes":"5","size_leaf_vector":"1"}},{"base_weights":[-1.489771E-2,-9.3378685E-2,3.7266925E-1,-4.462144E-2,1.8282542E-1],"categories":[],"categories_nodes":[],"categories_segments":[],"categories_sizes":[],"default_left":[0,0,0,0,0],"id":72,"left_children":[1,-1,3,-1,-1],"loss_changes":[2.4378045E0,0E0,1.5992999E0,0E0,0E0],"parents":[2147483647,0,0,2,2],"right_children":[2,-1,4,-1,-1],"split_conditions":[1.7113903E-1,-9.3378685E-2,-9.149501E-1,-4.462144E-2,1.8282542E-1],"split_indices":[384,0,146,0,0],"split_type":[0,0,0,0,0],"sum_hessian":[1.1174447E1,6.890119E0,4.2843275E0,1.9182893E0,2.3660383E0],"tree_param":{"num_deleted":"0","num_feature":"768","num_nodes":"5","size_leaf_vector":"1"}},{"base_weights":[-5.5639338E-2,1.1604851E-1,-9.452751E-2],"categories":[],"categories_nodes":[],"categories_segments":[],"categories_sizes":[],"default_left":[0,0,0],"id":73,"left_children":[1,-1,-1],"loss_changes":[2.377833E0,0E0,0E0],"parents":[2147483647,0,0],"right_children":[2,-1,-1],"split_conditions":[-9.588031E-2,1.1604851E-1,-9.452751E-2],"split_indices":[131,0,0],"split_type":[0,0,0],"sum_hessian":[1.0404285E1,2.9384208E0,7.4658647E0],"tree_param":{"num_deleted":"0","num_feature":"768","num_nodes":"3","size_leaf_vector":"1"}},{"base_weights":[1.03264466E-1,2.7018678E-1,-2.4225852E-1,-1.1028914E-1,4.2789608E-1,1.5644284E-1,-1.3208485E-1,-1.03120275E-1,7.3807344E-2,-2.3262894E-2,1.4413606E-1,6.668114E-2,-1.632735E-2],"categories":[],"categories_nodes":[],"categories_segments":[],"categories_sizes":[],"default_left":[0,0,0,0,0,0,0,0,0,0,0,0,0],"id":74,"left_children":[1,3,5,7,9,11,-1,-1,-1,-1,-1,-1,-1],"loss_changes":[2.4533737E0,1.8692378E0,1.5005708E0,1.416969E0,7.2467756E-1,1.7914926E-1,0E0,0E0,0E0,0E0,0E0,0E0,0E0],"parents":[2147483647,0,0,1,1,2,2,3,3,4,4,5,5],"right_children":[2,4,6,8,10,12,-1,-1,-1,-1,-1,-1,-1],"split_conditions":[9.726399E-2,7.3171034E-2,-1.284765E-1,8.1303173E-1,-8.067653E-2,8.0851816E-2,-1.3208485E-1,-1.03120275E-1,7.3807344E-2,-2.3262894E-2,1.4413606E-1,6.668114E-2,-1.632735E-2],"split_indices":[428,600,295,108,6,5,0,0,0,0,0,0,0],"split_type":[0,0,0,0,0,0,0,0,0,0,0,0,0],"sum_hessian":[3.1863115E1,2.2219189E1,9.643926E0,6.951646E0,1.5267544E1,3.5487647E0,6.0951605E0,4.306614E0,2.6450322E0,1.2141571E0,1.4053387E1,2.4984298E0,1.0503348E0],"tree_param":{"num_deleted":"0","num_feature":"768","num_nodes":"13","size_leaf_vector":"1"}},{"base_weights":[6.945321E-2,3.8517135E-1,-7.816015E-2,5.329434E-1,-3.2301035E-2,1.29967965E-2,1.7750096E-1],"categories":[],"categories_nodes":[],"categories_segments":[],"categories_sizes":[],"default_left":[0,0,0,0,0,0,0],"id":75,"left_children":[1,3,-1,5,-1,-1,-1],"loss_changes":[1.9659446E0,9.5691204E-1,0E0,9.950805E-2,0E0,0E0,0E0],"parents":[2147483647,0,0,1,1,3,3],"right_children":[2,4,-1,6,-1,-1,-1],"split_conditions":[-6.9002606E-2,1.0516967E-1,-7.816015E-2,-5.060104E-2,-3.2301035E-2,1.29967965E-2,1.7750096E-1],"split_indices":[496,237,0,486,0,0,0],"split_type":[0,0,0,0,0,0,0],"sum_hessian":[9.0540695E0,4.1997557E0,4.854314E0,2.9179904E0,1.2817653E0,1.2430242E0,1.6749662E0],"tree_param":{"num_deleted":"0","num_feature":"768","num_nodes":"7","size_leaf_vector":"1"}},{"base_weights":[-1.4839551E-1,-9.4037235E-2,7.017298E-2],"categories":[],"categories_nodes":[],"categories_segments":[],"categories_sizes":[],"default_left":[0,0,0],"id":76,"left_children":[1,-1,-1],"loss_changes":[1.2677284E0,0E0,0E0],"parents":[2147483647,0,0],"right_children":[2,-1,-1],"split_conditions":[1.03027724E-1,-9.4037235E-2,7.017298E-2],"split_indices":[616,0,0],"split_type":[0,0,0],"sum_hessian":[9.279972E0,7.110441E0,2.1695304E0],"tree_param":{"num_deleted":"0","num_feature":"768","num_nodes":"3","size_leaf_vector":"1"}},{"base_weights":[-1.2293009E-1,-9.261728E-2,9.360854E-2],"categories":[],"categories_nodes":[],"categories_segments":[],"categories_sizes":[],"default_left":[0,0,0],"id":77,"left_children":[1,-1,-1],"loss_changes":[1.5816201E0,0E0,0E0],"parents":[2147483647,0,0],"right_children":[2,-1,-1],"split_conditions":[9.9039954E-1,-9.261728E-2,9.360854E-2],"split_indices":[410,0,0],"split_type":[0,0,0],"sum_hessian":[8.611293E0,7.0506773E0,1.5606161E0],"tree_param":{"num_deleted":"0","num_feature":"768","num_nodes":"3","size_leaf_vector":"1"}},{"base_weights":[-1.0779463E-1,-9.733506E-2,2.6280254E-1,1.303057E-1,-4.0400952E-2],"categories":[],"categories_nodes":[],"categories_segments":[],"categories_sizes":[],"default_left":[0,0,0,0,0],"id":78,"left_children":[1,-1,3,-1,-1],"loss_changes":[1.7279935E0,0E0,8.886509E-1,0E0,0E0],"parents":[2147483647,0,0,2,2],"right_children":[2,-1,4,-1,-1],"split_conditions":[6.7546636E-2,-9.733506E-2,9.719781E-1,1.303057E-1,-4.0400952E-2],"split_indices":[692,0,587,0,0],"split_type":[0,0,0,0,0],"sum_hessian":[1.1211614E1,7.468211E0,3.7434027E0,2.2907715E0,1.4526312E0],"tree_param":{"num_deleted":"0","num_feature":"768","num_nodes":"5","size_leaf_vector":"1"}},{"base_weights":[-3.595578E-2,-9.4077714E-2,3.3967075E-1,-3.830923E-2,1.547255E-1],"categories":[],"categories_nodes":[],"categories_segments":[],"categories_sizes":[],"default_left":[0,0,0,0,0],"id":79,"left_children":[1,-1,3,-1,-1],"loss_changes":[2.250459E0,0E0,1.10295E0,0E0,0E0],"parents":[2147483647,0,0,2,2],"right_children":[2,-1,4,-1,-1],"split_conditions":[3.5988316E-2,-9.4077714E-2,1.02513924E-1,-3.830923E-2,1.547255E-1],"split_indices":[52,0,230,0,0],"split_type":[0,0,0,0,0],"sum_hessian":[1.1472401E1,7.0714364E0,4.400964E0,1.5803013E0,2.8206627E0],"tree_param":{"num_deleted":"0","num_feature":"768","num_nodes":"5","size_leaf_vector":"1"}},{"base_weights":[-5.2910075E-3,3.1606117E-1,-8.228406E-2,1.5830976E-1,-4.141344E-2],"categories":[],"categories_nodes":[],"categories_segments":[],"categories_sizes":[],"default_left":[0,0,0,0,0],"id":80,"left_children":[1,3,-1,-1,-1],"loss_changes":[1.6530012E0,1.2053194E0,0E0,0E0,0E0],"parents":[2147483647,0,0,1,1],"right_children":[2,4,-1,-1,-1],"split_conditions":[9.4929434E-2,-2.0548505E-1,-8.228406E-2,1.5830976E-1,-4.141344E-2],"split_indices":[439,649,0,0,0],"split_type":[0,0,0,0,0],"sum_hessian":[9.108644E0,3.751671E0,5.356972E0,2.0063121E0,1.745359E0],"tree_param":{"num_deleted":"0","num_feature":"768","num_nodes":"5","size_leaf_vector":"1"}},{"base_weights":[-6.836007E-2,-8.604264E-2,1.0014531E-1],"categories":[],"categories_nodes":[],"categories_segments":[],"categories_sizes":[],"default_left":[0,0,0],"id":81,"left_children":[1,-1,-1],"loss_changes":[1.6061529E0,0E0,0E0],"parents":[2147483647,0,0],"right_children":[2,-1,-1],"split_conditions":[-1.5143272E-1,-8.604264E-2,1.0014531E-1],"split_indices":[502,0,0],"split_type":[0,0,0],"sum_hessian":[7.8329716E0,6.00537E0,1.8276016E0],"tree_param":{"num_deleted":"0","num_feature":"768","num_nodes":"3","size_leaf_vector":"1"}},{"base_weights":[4.3042354E-2,2.7254662E-1,-2.9687923E-1,-1.3137364E-1,3.931296E-1,-4.4426343E-1,1.5402707E-1,-8.126904E-2,4.2505242E-2,-4.726773E-2,1.4480768E-1,6.3767615E-3,-1.4694637E-1,7.956948E-4,5.3233147E-2],"categories":[],"categories_nodes":[],"categories_segments":[],"categories_sizes":[],"default_left":[0,0,0,0,0,0,0,0,0,0,0,0,0,0,0],"id":82,"left_children":[1,3,5,7,9,11,13,-1,-1,-1,-1,-1,-1,-1,-1],"loss_changes":[3.1086102E0,1.3929857E0,1.4295837E0,5.387459E-1,1.326942E0,3.4090066E-1,2.5095984E-2,0E0,0E0,0E0,0E0,0E0,0E0,0E0,0E0],"parents":[2147483647,0,0,1,1,2,2,3,3,4,4,5,5,6,6],"right_children":[2,4,6,8,10,12,14,-1,-1,-1,-1,-1,-1,-1,-1],"split_conditions":[2.8712454E-1,3.3884278E-1,-9.9329716E-1,1.8272199E-1,-9.6714616E-2,-4.1593564E-1,-9.4606525E-1,-8.126904E-2,4.2505242E-2,-4.726773E-2,1.4480768E-1,6.3767615E-3,-1.4694637E-1,7.956948E-4,5.3233147E-2],"split_indices":[294,54,102,237,671,759,90,0,0,0,0,0,0,0,0],"split_type":[0,0,0,0,0,0,0,0,0,0,0,0,0,0,0],"sum_hessian":[2.9661236E1,1.8298025E1,1.136321E1,4.103839E0,1.4194187E1,8.619488E0,2.743722E0,2.742226E0,1.3616132E0,1.4545645E0,1.2739622E1,1.0060999E0,7.6133876E0,1.1132936E0,1.6304283E0],"tree_param":{"num_deleted":"0","num_feature":"768","num_nodes":"15","size_leaf_vector":"1"}},{"base_weights":[-6.7166835E-2,1.1726854E-1,-9.2332914E-2],"categories":[],"categories_nodes":[],"categories_segments":[],"categories_sizes":[],"default_left":[0,0,0],"id":83,"left_children":[1,-1,-1],"loss_changes":[2.1359155E0,0E0,0E0],"parents":[2147483647,0,0],"right_children":[2,-1,-1],"split_conditions":[8.4332716E-1,1.1726854E-1,-9.2332914E-2],"split_indices":[657,0,0],"split_type":[0,0,0],"sum_hessian":[8.921761E0,1.99698E0,6.9247813E0],"tree_param":{"num_deleted":"0","num_feature":"768","num_nodes":"3","size_leaf_vector":"1"}},{"base_weights":[-7.843081E-2,2.74991E-1,-8.908532E-2,1.397296E-1,-3.69463E-2],"categories":[],"categories_nodes":[],"categories_segments":[],"categories_sizes":[],"default_left":[0,0,0,0,0],"id":84,"left_children":[1,3,-1,-1,-1],"loss_changes":[1.4909106E0,8.907948E-1,0E0,0E0,0E0],"parents":[2147483647,0,0,1,1],"right_children":[2,4,-1,-1,-1],"split_conditions":[-8.969025E-1,2.495717E-1,-8.908532E-2,1.397296E-1,-3.69463E-2],"split_indices":[618,83,0,0,0],"split_type":[0,0,0,0,0],"sum_hessian":[9.018112E0,2.9518487E0,6.0662637E0,1.4215263E0,1.5303223E0],"tree_param":{"num_deleted":"0","num_feature":"768","num_nodes":"5","size_leaf_vector":"1"}},{"base_weights":[-8.305741E-2,-8.4334746E-2,8.9704625E-2],"categories":[],"categories_nodes":[],"categories_segments":[],"categories_sizes":[],"default_left":[0,0,0],"id":85,"left_children":[1,-1,-1],"loss_changes":[1.3552607E0,0E0,0E0],"parents":[2147483647,0,0],"right_children":[2,-1,-1],"split_conditions":[-5.691721E-2,-8.4334746E-2,8.9704625E-2],"split_indices":[755,0,0],"split_type":[0,0,0],"sum_hessian":[7.355453E0,5.714403E0,1.6410499E0],"tree_param":{"num_deleted":"0","num_feature":"768","num_nodes":"3","size_leaf_vector":"1"}},{"base_weights":[1.544835E-1,-1.637474E-1,4.634129E-1,5.2558094E-2,-8.452078E-2,-4.9707587E-3,1.6654578E-1],"categories":[],"categories_nodes":[],"categories_segments":[],"categories_sizes":[],"default_left":[0,0,0,0,0,0,0],"id":86,"left_children":[1,3,5,-1,-1,-1,-1],"loss_changes":[1.9642059E0,7.120929E-1,4.6365404E-1,0E0,0E0,0E0,0E0],"parents":[2147483647,0,0,1,1,2,2],"right_children":[2,4,6,-1,-1,-1,-1],"split_conditions":[-2.0842738E-1,2.0621818E-1,-5.1346827E-2,5.2558094E-2,-8.452078E-2,-4.9707587E-3,1.6654578E-1],"split_indices":[519,152,611,0,0,0,0],"split_type":[0,0,0,0,0,0,0],"sum_hessian":[1.1120215E1,6.6351004E0,4.485115E0,1.0873452E0,5.5477552E0,1.3770955E0,3.1080196E0],"tree_param":{"num_deleted":"0","num_feature":"768","num_nodes":"7","size_leaf_vector":"1"}},{"base_weights":[-6.1232664E-2,3.058795E-1,-9.138335E-2,1.4105503E-1,-3.551047E-2],"categories":[],"categories_nodes":[],"categories_segments":[],"categories_sizes":[],"default_left":[0,0,0,0,0],"id":87,"left_children":[1,3,-1,-1,-1],"loss_changes":[1.8367156E0,8.785369E-1,0E0,0E0,0E0],"parents":[2147483647,0,0,1,1],"right_children":[2,4,-1,-1,-1],"split_conditions":[-3.4113306E-1,-7.086083E-1,-9.138335E-2,1.4105503E-1,-3.551047E-2],"split_indices":[381,47,0,0,0],"split_type":[0,0,0,0,0],"sum_hessian":[1.0342882E1,3.6114073E0,6.7314754E0,2.21298E0,1.3984274E0],"tree_param":{"num_deleted":"0","num_feature":"768","num_nodes":"5","size_leaf_vector":"1"}},{"base_weights":[9.461645E-2,-2.3098691E-1,1.5656114E-1,1.6756315E-2,-8.50823E-2],"categories":[],"categories_nodes":[],"categories_segments":[],"categories_sizes":[],"default_left":[0,0,0,0,0],"id":88,"left_children":[1,3,-1,-1,-1],"loss_changes":[2.639543E0,2.5693262E-1,0E0,0E0,0E0],"parents":[2147483647,0,0,1,1],"right_children":[2,4,-1,-1,-1],"split_conditions":[9.1231817E-1,-6.263407E-2,1.5656114E-1,1.6756315E-2,-8.50823E-2],"split_indices":[482,670,0,0,0],"split_type":[0,0,0,0,0],"sum_hessian":[9.6412115E0,6.774964E0,2.8662477E0,1.002573E0,5.772391E0],"tree_param":{"num_deleted":"0","num_feature":"768","num_nodes":"5","size_leaf_vector":"1"}},{"base_weights":[3.9159823E-2,-8.519198E-2,1.3480748E-1],"categories":[],"categories_nodes":[],"categories_segments":[],"categories_sizes":[],"default_left":[0,0,0],"id":89,"left_children":[1,-1,-1],"loss_changes":[2.4990427E0,0E0,0E0],"parents":[2147483647,0,0],"right_children":[2,-1,-1],"split_conditions":[1.2807332E-1,-8.519198E-2,1.3480748E-1],"split_indices":[486,0,0],"split_type":[0,0,0],"sum_hessian":[9.040233E0,5.9173994E0,3.1228335E0],"tree_param":{"num_deleted":"0","num_feature":"768","num_nodes":"3","size_leaf_vector":"1"}},{"base_weights":[4.1468065E-2,-3.169681E-1,2.4244145E-1,-4.3765673E-1,5.1215097E-2,4.2358166E-1,-1.0711315E-1,-1.4125526E-1,-1.9755934E-3,1.3954696E-1,-1.4738254E-2,5.8138497E-2,-9.637446E-2],"categories":[],"categories_nodes":[],"categories_segments":[],"categories_sizes":[],"default_left":[0,0,0,0,0,0,0,0,0,0,0,0,0],"id":90,"left_children":[1,3,5,7,-1,9,11,-1,-1,-1,-1,-1,-1],"loss_changes":[3.1269648E0,1.3062153E0,1.9509448E0,1.8632793E-1,0E0,4.8656487E-1,1.1672843E0,0E0,0E0,0E0,0E0,0E0,0E0],"parents":[2147483647,0,0,1,1,2,2,3,3,5,5,6,6],"right_children":[2,4,6,8,-1,10,12,-1,-1,-1,-1,-1,-1],"split_conditions":[-8.650875E-1,8.570161E-1,4.097842E-2,1.8020248E-1,5.1215097E-2,1.1709915E-1,-9.723101E-1,-1.4125526E-1,-1.9755934E-3,1.3954696E-1,-1.4738254E-2,5.8138497E-2,-9.637446E-2],"split_indices":[537,95,642,741,0,186,593,0,0,0,0,0,0],"split_type":[0,0,0,0,0,0,0,0,0,0,0,0,0],"sum_hessian":[3.3074417E1,1.084555E1,2.222887E1,9.105184E0,1.7403653E0,1.3944112E1,8.284758E0,8.025767E0,1.0794163E0,1.2890296E1,1.0538162E0,3.6419413E0,4.6428165E0],"tree_param":{"num_deleted":"0","num_feature":"768","num_nodes":"13","size_leaf_vector":"1"}},{"base_weights":[-1.2976351E-1,-8.8381186E-2,2.1858107E-1,-2.7194686E-2,1.0252072E-1],"categories":[],"categories_nodes":[],"categories_segments":[],"categories_sizes":[],"default_left":[0,0,0,0,0],"id":91,"left_children":[1,-1,3,-1,-1],"loss_changes":[1.1029197E0,0E0,4.305699E-1,0E0,0E0],"parents":[2147483647,0,0,2,2],"right_children":[2,-1,4,-1,-1],"split_conditions":[1.2352659E-1,-8.8381186E-2,1.3127527E-1,-2.7194686E-2,1.0252072E-1],"split_indices":[402,0,379,0,0],"split_type":[0,0,0,0,0],"sum_hessian":[8.600283E0,6.36138E0,2.2389028E0,1.0135877E0,1.2253151E0],"tree_param":{"num_deleted":"0","num_feature":"768","num_nodes":"5","size_leaf_vector":"1"}},{"base_weights":[-1.02124654E-1,9.017271E-2,-8.7760426E-2],"categories":[],"categories_nodes":[],"categories_segments":[],"categories_sizes":[],"default_left":[0,0,0],"id":92,"left_children":[1,-1,-1],"loss_changes":[1.4161329E0,0E0,0E0],"parents":[2147483647,0,0],"right_children":[2,-1,-1],"split_conditions":[-8.279185E-2,9.017271E-2,-8.7760426E-2],"split_indices":[174,0,0],"split_type":[0,0,0],"sum_hessian":[7.7348943E0,1.5544729E0,6.1804214E0],"tree_param":{"num_deleted":"0","num_feature":"768","num_nodes":"3","size_leaf_vector":"1"}},{"base_weights":[-1.0421042E-1,-8.582991E-2,7.8174576E-2],"categories":[],"categories_nodes":[],"categories_segments":[],"categories_sizes":[],"default_left":[0,0,0],"id":93,"left_children":[1,-1,-1],"loss_changes":[1.227436E0,0E0,0E0],"parents":[2147483647,0,0],"right_children":[2,-1,-1],"split_conditions":[-6.3256204E-2,-8.582991E-2,7.8174576E-2],"split_indices":[755,0,0],"split_type":[0,0,0],"sum_hessian":[7.880944E0,5.978564E0,1.9023799E0],"tree_param":{"num_deleted":"0","num_feature":"768","num_nodes":"3","size_leaf_vector":"1"}},{"base_weights":[1.687175E-1,4.117473E-1,-2.1345901E-1,5.87866E-1,-4.649286E-2,6.0818796E-3,-7.477039E-2,3.594617E-4,2.0145988E-1],"categories":[],"categories_nodes":[],"categories_segments":[],"categories_sizes":[],"default_left":[0,0,0,0,0,0,0,0,0],"id":94,"left_children":[1,3,5,7,-1,-1,-1,-1,-1],"loss_changes":[2.1298537E0,1.7363222E0,1.1195549E-1,5.2771235E-1,0E0,0E0,0E0,0E0,0E0],"parents":[2147483647,0,0,1,1,2,2,3,3],"right_children":[2,4,6,8,-1,-1,-1,-1,-1],"split_conditions":[8.245362E-2,-5.5821035E-2,-3.1353615E-2,-9.952525E-2,-4.649286E-2,6.0818796E-3,-7.477039E-2,3.594617E-4,2.0145988E-1],"split_indices":[533,474,261,21,0,0,0,0,0],"split_type":[0,0,0,0,0,0,0,0,0],"sum_hessian":[1.319975E1,7.8322635E0,5.3674865E0,5.833022E0,1.9992415E0,1.0001154E0,4.367371E0,1.3610462E0,4.471976E0],"tree_param":{"num_deleted":"0","num_feature":"768","num_nodes":"9","size_leaf_vector":"1"}},{"base_weights":[-4.0656265E-2,-9.098526E-2,3.6568692E-1,1.2925273E-1,3.4545949E-3],"categories":[],"categories_nodes":[],"categories_segments":[],"categories_sizes":[],"default_left":[0,0,0,0,0],"id":95,"left_children":[1,-1,3,-1,-1],"loss_changes":[2.1067889E0,0E0,1.5927601E-1,0E0,0E0],"parents":[2147483647,0,0,2,2],"right_children":[2,-1,4,-1,-1],"split_conditions":[-5.1926997E-2,-9.098526E-2,-9.577748E-2,1.2925273E-1,3.4545949E-3],"split_indices":[394,0,119,0,0],"split_type":[0,0,0,0,0],"sum_hessian":[9.5455065E0,6.5683646E0,2.9771416E0,1.6003373E0,1.3768042E0],"tree_param":{"num_deleted":"0","num_feature":"768","num_nodes":"5","size_leaf_vector":"1"}},{"base_weights":[2.0479707E-1,4.334234E-1,-6.5493494E-2,6.3633996E-1,-4.5151222E-2,2.0340607E-1,1.619094E-2],"categories":[],"categories_nodes":[],"categories_segments":[],"categories_sizes":[],"default_left":[0,0,0,0,0,0,0],"id":96,"left_children":[1,3,-1,5,-1,-1,-1],"loss_changes":[1.9075842E0,1.8180127E0,0E0,4.383993E-2,0E0,0E0,0E0],"parents":[2147483647,0,0,1,1,3,3],"right_children":[2,4,-1,6,-1,-1,-1],"split_conditions":[-8.437713E-1,9.733401E-1,-6.5493494E-2,5.670216E-2,-4.5151222E-2,2.0340607E-1,1.619094E-2],"split_indices":[48,557,0,703,0,0,0],"split_type":[0,0,0,0,0,0,0],"sum_hessian":[9.829122E0,6.3019686E0,3.5271533E0,4.34372E0,1.9582484E0,3.2872386E0,1.0564815E0],"tree_param":{"num_deleted":"0","num_feature":"768","num_nodes":"7","size_leaf_vector":"1"}},{"base_weights":[-8.506078E-2,8.276495E-2,-8.3079174E-2],"categories":[],"categories_nodes":[],"categories_segments":[],"categories_sizes":[],"default_left":[0,0,0],"id":97,"left_children":[1,-1,-1],"loss_changes":[1.243791E0,0E0,0E0],"parents":[2147483647,0,0],"right_children":[2,-1,-1],"split_conditions":[-1.7847079E-1,8.276495E-2,-8.3079174E-2],"split_indices":[299,0,0],"split_type":[0,0,0],"sum_hessian":[7.4438396E0,1.8237262E0,5.620113E0],"tree_param":{"num_deleted":"0","num_feature":"768","num_nodes":"3","size_leaf_vector":"1"}},{"base_weights":[2.8905602E-2,2.4211158E-1,-2.3211238E-1,-1.618783E-1,3.6795068E-1,4.6280526E-2,-3.5559097E-1,-6.916344E-4,-5.515444E-2,1.1936241E-1,-2.5145495E-3,1.8808449E-2,-1.2674412E-1],"categories":[],"categories_nodes":[],"categories_segments":[],"categories_sizes":[],"default_left":[0,0,0,0,0,0,0,0,0,0,0,0,0],"id":98,"left_children":[1,3,5,7,9,-1,11,-1,-1,-1,-1,-1,-1],"loss_changes":[1.8771901E0,1.2248172E0,1.0113077E0,2.5237143E-2,1.904521E-1,0E0,5.023097E-1,0E0,0E0,0E0,0E0,0E0,0E0],"parents":[2147483647,0,0,1,1,2,2,3,3,4,4,6,6],"right_children":[2,4,6,8,10,-1,12,-1,-1,-1,-1,-1,-1],"split_conditions":[-2.0031463E-1,-3.2770693E-1,-3.3969203E-1,-8.5149103E-1,1.3409565E-1,4.6280526E-2,-7.537377E-2,-6.916344E-4,-5.515444E-2,1.1936241E-1,-2.5145495E-3,1.8808449E-2,-1.2674412E-1],"split_indices":[381,623,519,215,693,0,183,0,0,0,0,0,0],"split_type":[0,0,0,0,0,0,0,0,0,0,0,0,0],"sum_hessian":[2.3682617E1,1.3234508E1,1.0448109E1,2.8032112E0,1.0431296E1,2.228396E0,8.219713E0,1.0078206E0,1.7953906E0,9.3978195E0,1.0334773E0,1.1764507E0,7.043262E0],"tree_param":{"num_deleted":"0","num_feature":"768","num_nodes":"13","size_leaf_vector":"1"}},{"base_weights":[-6.8743795E-2,2.6650336E-1,-8.453876E-2,-2.7123656E-2,1.1624677E-1],"categories":[],"categories_nodes":[],"categories_segments":[],"categories_sizes":[],"default_left":[0,0,0,0,0],"id":99,"left_children":[1,3,-1,-1,-1],"loss_changes":[1.3479828E0,5.1458865E-1,0E0,0E0,0E0],"parents":[2147483647,0,0,1,1],"right_children":[2,4,-1,-1,-1],"split_conditions":[-9.829437E-2,3.601384E-1,-8.453876E-2,-2.7123656E-2,1.1624677E-1],"split_indices":[496,464,0,0,0],"split_type":[0,0,0,0,0],"sum_hessian":[8.615453E0,2.860269E0,5.7551837E0,1.0439816E0,1.8162876E0],"tree_param":{"num_deleted":"0","num_feature":"768","num_nodes":"5","size_leaf_vector":"1"}},{"base_weights":[-9.9702604E-2,7.9639815E-2,-8.476928E-2],"categories":[],"categories_nodes":[],"categories_segments":[],"categories_sizes":[],"default_left":[0,0,0],"id":100,"left_children":[1,-1,-1],"loss_changes":[1.2053251E0,0E0,0E0],"parents":[2147483647,0,0],"right_children":[2,-1,-1],"split_conditions":[-1.5430565E-1,7.9639815E-2,-8.476928E-2],"split_indices":[276,0,0],"split_type":[0,0,0],"sum_hessian":[7.4337654E0,1.726782E0,5.7069836E0],"tree_param":{"num_deleted":"0","num_feature":"768","num_nodes":"3","size_leaf_vector":"1"}},{"base_weights":[-1.7220107E-1,-8.78465E-2,5.494665E-2],"categories":[],"categories_nodes":[],"categories_segments":[],"categories_sizes":[],"default_left":[0,0,0],"id":101,"left_children":[1,-1,-1],"loss_changes":[8.0489933E-1,0E0,0E0],"parents":[2147483647,0,0],"right_children":[2,-1,-1],"split_conditions":[9.926222E-1,-8.78465E-2,5.494665E-2],"split_indices":[410,0,0],"split_type":[0,0,0],"sum_hessian":[7.522125E0,6.272803E0,1.2493222E0],"tree_param":{"num_deleted":"0","num_feature":"768","num_nodes":"3","size_leaf_vector":"1"}},{"base_weights":[1.0035152E-1,-8.1989385E-2,3.8040775E-1,5.155878E-1,-3.7815426E-2,3.8386188E-3,1.6947627E-1],"categories":[],"categories_nodes":[],"categories_segments":[],"categories_sizes":[],"default_left":[0,0,0,0,0,0,0],"id":102,"left_children":[1,-1,3,5,-1,-1,-1],"loss_changes":[2.3059044E0,0E0,1.1359963E0,2.2015786E-1,0E0,0E0,0E0],"parents":[2147483647,0,0,2,2,3,3],"right_children":[2,-1,4,6,-1,-1,-1],"split_conditions":[-2.4004436E-1,-8.1989385E-2,1.5523577E-1,-5.478429E-2,-3.7815426E-2,3.8386188E-3,1.6947627E-1],"split_indices":[519,0,644,370,0,0,0],"split_type":[0,0,0,0,0,0,0],"sum_hessian":[1.2068352E1,5.2219353E0,6.846417E0,5.3328843E0,1.5135329E0,1.0391296E0,4.2937546E0],"tree_param":{"num_deleted":"0","num_feature":"768","num_nodes":"7","size_leaf_vector":"1"}},{"base_weights":[1.1357994E-1,-1.5780073E-1,4.234636E-1,-8.333336E-2,5.1558778E-2,1.4606874E-1,4.368507E-3],"categories":[],"categories_nodes":[],"categories_segments":[],"categories_sizes":[],"default_left":[0,0,0,0,0,0,0],"id":103,"left_children":[1,3,5,-1,-1,-1,-1],"loss_changes":[1.5957179E0,6.9909996E-1,1.8142545E-1,0E0,0E0,0E0,0E0],"parents":[2147483647,0,0,1,1,2,2],"right_children":[2,4,6,-1,-1,-1,-1],"split_conditions":[9.743331E-2,6.4077415E-2,-2.2105508E-2,-8.333336E-2,5.1558778E-2,1.4606874E-1,4.368507E-3],"split_indices":[172,594,167,0,0,0,0],"split_type":[0,0,0,0,0,0,0],"sum_hessian":[1.0001866E1,6.6404037E0,3.3614626E0,5.4455175E0,1.1948862E0,2.0844133E0,1.2770493E0],"tree_param":{"num_deleted":"0","num_feature":"768","num_nodes":"7","size_leaf_vector":"1"}},{"base_weights":[1.13687284E-1,-2.0112878E-1,3.9807397E-1,-7.601464E-2,1.4729225E-2,-2.67384E-2,5.0782526E-1,1.6248569E-1,1.2743314E-2],"categories":[],"categories_nodes":[],"categories_segments":[],"categories_sizes":[],"default_left":[0,0,0,0,0,0,0,0,0],"id":104,"left_children":[1,3,5,-1,-1,-1,7,-1,-1],"loss_changes":[1.7549851E0,1.9952992E-1,7.4112475E-1,0E0,0E0,0E0,2.0276785E-2,0E0,0E0],"parents":[2147483647,0,0,1,1,2,2,6,6],"right_children":[2,4,6,-1,-1,-1,8,-1,-1],"split_conditions":[-1.8856737E-1,1.17280036E-1,-9.593398E-2,-7.601464E-2,1.4729225E-2,-2.67384E-2,-8.149857E-2,1.6248569E-1,1.2743314E-2],"split_indices":[730,503,391,0,0,0,612,0,0],"split_type":[0,0,0,0,0,0,0,0,0],"sum_hessian":[1.013093E1,5.502964E0,4.627966E0,4.5001593E0,1.0028046E0,1.0236003E0,3.6043656E0,2.59631E0,1.0080556E0],"tree_param":{"num_deleted":"0","num_feature":"768","num_nodes":"9","size_leaf_vector":"1"}},{"base_weights":[-1.8094659E-2,8.677048E-2,-7.590425E-2],"categories":[],"categories_nodes":[],"categories_segments":[],"categories_sizes":[],"default_left":[0,0,0],"id":105,"left_children":[1,-1,-1],"loss_changes":[1.2664707E0,0E0,0E0],"parents":[2147483647,0,0],"right_children":[2,-1,-1],"split_conditions":[-9.588031E-2,8.677048E-2,-7.590425E-2],"split_indices":[131,0,0],"split_type":[0,0,0],"sum_hessian":[7.4736366E0,2.7369812E0,4.736655E0],"tree_param":{"num_deleted":"0","num_feature":"768","num_nodes":"3","size_leaf_vector":"1"}},{"base_weights":[1.697998E-2,1.7807737E-1,-3.3580267E-1,3.4910107E-1,-9.1685936E-2,2.8717206E-3,-1.12295136E-1,-2.706811E-2,1.2534001E-1,4.9569562E-2,-9.243627E-2],"categories":[],"categories_nodes":[],"categories_segments":[],"categories_sizes":[],"default_left":[0,0,0,0,0,0,0,0,0,0,0],"id":106,"left_children":[1,3,5,7,9,-1,-1,-1,-1,-1,-1],"loss_changes":[2.01816E0,1.2688701E0,1.6710651E-1,6.638092E-1,9.9328727E-1,0E0,0E0,0E0,0E0,0E0,0E0],"parents":[2147483647,0,0,1,1,2,2,3,3,4,4],"right_children":[2,4,6,8,10,-1,-1,-1,-1,-1,-1],"split_conditions":[-9.901406E-1,6.669006E-2,-1.04255304E-1,-7.863467E-2,-8.5619646E-1,2.8717206E-3,-1.12295136E-1,-2.706811E-2,1.2534001E-1,4.9569562E-2,-9.243627E-2],"split_indices":[224,428,307,250,339,0,0,0,0,0,0],"split_type":[0,0,0,0,0,0,0,0,0,0,0],"sum_hessian":[2.5249765E1,1.9034025E1,6.21574E0,1.0748939E1,8.285087E0,1.0005635E0,5.2151766E0,1.2416673E0,9.507272E0,4.329113E0,3.9559734E0],"tree_param":{"num_deleted":"0","num_feature":"768","num_nodes":"11","size_leaf_vector":"1"}},{"base_weights":[1.0649382E-1,4.3442473E-1,-1.9436166E-1,1.3978411E-1,1.2219525E-2,2.1110052E-2,-7.720199E-2],"categories":[],"categories_nodes":[],"categories_segments":[],"categories_sizes":[],"default_left":[0,0,0,0,0,0,0],"id":107,"left_children":[1,3,5,-1,-1,-1,-1],"loss_changes":[1.8134398E0,8.019567E-3,2.7074823E-1,0E0,0E0,0E0,0E0],"parents":[2147483647,0,0,1,1,2,2],"right_children":[2,4,6,-1,-1,-1,-1],"split_conditions":[9.540061E-1,-7.6779455E-2,-1.8186401E-1,1.3978411E-1,1.2219525E-2,2.1110052E-2,-7.720199E-2],"split_indices":[350,75,596,0,0,0,0],"split_type":[0,0,0,0,0,0,0],"sum_hessian":[9.101612E0,3.2927294E0,5.808882E0,2.1990137E0,1.0937157E0,1.0036126E0,4.8052697E0],"tree_param":{"num_deleted":"0","num_feature":"768","num_nodes":"7","size_leaf_vector":"1"}},{"base_weights":[2.575559E-2,-7.896815E-2,3.6523384E-1,1.5186183E-1,-2.871641E-2],"categories":[],"categories_nodes":[],"categories_segments":[],"categories_sizes":[],"default_left":[0,0,0,0,0],"id":108,"left_children":[1,-1,3,-1,-1],"loss_changes":[1.7717592E0,0E0,7.715924E-1,0E0,0E0],"parents":[2147483647,0,0,2,2],"right_children":[2,-1,4,-1,-1],"split_conditions":[4.4108403E-1,-7.896815E-2,1.6565667E-2,1.5186183E-1,-2.871641E-2],"split_indices":[546,0,174,0,0],"split_type":[0,0,0,0,0],"sum_hessian":[8.160218E0,5.0145864E0,3.145632E0,2.0330372E0,1.1125948E0],"tree_param":{"num_deleted":"0","num_feature":"768","num_nodes":"5","size_leaf_vector":"1"}},{"base_weights":[-1.9354476E-1,-7.62825E-2,1.947698E-2],"categories":[],"categories_nodes":[],"categories_segments":[],"categories_sizes":[],"default_left":[0,0,0],"id":109,"left_children":[1,-1,-1],"loss_changes":[2.4980375E-1,0E0,0E0],"parents":[2147483647,0,0],"right_children":[2,-1,-1],"split_conditions":[9.7393185E-1,-7.62825E-2,1.947698E-2],"split_indices":[357,0,0],"split_type":[0,0,0],"sum_hessian":[5.655785E0,4.6454034E0,1.0103815E0],"tree_param":{"num_deleted":"0","num_feature":"768","num_nodes":"3","size_leaf_vector":"1"}},{"base_weights":[1.1489811E-1,3.8681415E-1,-1.7036839E-1,-3.416199E-2,1.5878113E-1,-8.606582E-2,5.186979E-2],"categories":[],"categories_nodes":[],"categories_segments":[],"categories_sizes":[],"default_left":[0,0,0,0,0,0,0],"id":110,"left_children":[1,3,5,-1,-1,-1,-1],"loss_changes":[1.6371751E0,1.0260173E0,7.15907E-1,0E0,0E0,0E0,0E0],"parents":[2147483647,0,0,1,1,2,2],"right_children":[2,4,6,-1,-1,-1,-1],"split_conditions":[-1.2812966E-1,2.6277214E-2,6.8460114E-2,-3.416199E-2,1.5878113E-1,-8.606582E-2,5.186979E-2],"split_indices":[374,230,112,0,0,0,0],"split_type":[0,0,0,0,0,0,0],"sum_hessian":[1.1858261E1,5.159936E0,6.698325E0,1.3651376E0,3.7947981E0,5.6139812E0,1.0843437E0],"tree_param":{"num_deleted":"0","num_feature":"768","num_nodes":"7","size_leaf_vector":"1"}},{"base_weights":[-7.800352E-2,8.339813E-2,-8.043989E-2],"categories":[],"categories_nodes":[],"categories_segments":[],"categories_sizes":[],"default_left":[0,0,0],"id":111,"left_children":[1,-1,-1],"loss_changes":[1.1702685E0,0E0,0E0],"parents":[2147483647,0,0],"right_children":[2,-1,-1],"split_conditions":[-1.0406668E-1,8.339813E-2,-8.043989E-2],"split_indices":[250,0,0],"split_type":[0,0,0],"sum_hessian":[6.7834873E0,1.5571826E0,5.2263045E0],"tree_param":{"num_deleted":"0","num_feature":"768","num_nodes":"3","size_leaf_vector":"1"}},{"base_weights":[6.815484E-3,-7.936032E-2,2.8215086E-1,-3.3994034E-2,1.2443549E-1],"categories":[],"categories_nodes":[],"categories_segments":[],"categories_sizes":[],"default_left":[0,0,0,0,0],"id":112,"left_children":[1,-1,3,-1,-1],"loss_changes":[1.4674414E0,0E0,7.4321884E-1,0E0,0E0],"parents":[2147483647,0,0,2,2],"right_children":[2,-1,4,-1,-1],"split_conditions":[-2.685709E-1,-7.936032E-2,3.5148418E-1,-3.3994034E-2,1.2443549E-1],"split_indices":[575,0,546,0,0],"split_type":[0,0,0,0,0],"sum_hessian":[9.646177E0,4.9570365E0,4.689141E0,1.3606238E0,3.328517E0],